{"learner":{"attributes":{"best_iteration":"99","best_ntree_limit":"100","scikit_learn":"{\"n_estimators\": 100, \"objective\": \"reg:squarederror\", \"max_depth\": null, \"max_leaves\": null, \"max_bin\": null, \"grow_policy\": null, \"learning_rate\": null, \"verbosity\": null, \"booster\": null, \"tree_method\": null, \"gamma\": null, \"min_child_weight\": null, \"max_delta_step\": null, \"subsample\": null, \"sampling_method\": null, \"colsample_bytree\": null, \"colsample_bylevel\": null, \"colsample_bynode\": null, \"reg_alpha\": null, \"reg_lambda\": null, \"scale_pos_weight\": null, \"base_score\": null, \"missing\": NaN, \"num_parallel_tree\": null, \"random_state\": null, \"n_jobs\": null, \"monotone_constraints\": null, \"interaction_constraints\": null, \"importance_type\": null, \"gpu_id\": null, \"validate_parameters\": null, \"predictor\": null, \"enable_categorical\": false, \"max_cat_to_onehot\": null, \"eval_metric\": null, \"early_stopping_rounds\": null, \"callbacks\": null, \"_estimator_type\": \"regressor\"}"},"feature_names":["Species","Length1","Length2","Length3","Height","Width"],"feature_types":["int","float","float","float","float","float"],"gradient_booster":{"model":{"gbtree_model_param":{"num_parallel_tree":"1","num_trees":"100","size_leaf_vector":"0"},"tree_info":[0,0,0,0,0,0,0,0,0,0,0,0,0,0,0,0,0,0,0,0,0,0,0,0,0,0,0,0,0,0,0,0,0,0,0,0,0,0,0,0,0,0,0,0,0,0,0,0,0,0,0,0,0,0,0,0,0,0,0,0,0,0,0,0,0,0,0,0,0,0,0,0,0,0,0,0,0,0,0,0,0,0,0,0,0,0,0,0,0,0,0,0,0,0,0,0,0,0,0,0],"trees":[{"base_weights":[-5.081272E-1,-1.0433087E0,8.439414E-1,-1.3391197E0,-5.1670504E-1,3.3516708E-1,1.3340954E0,-7.502773E-1,-2.6740316E-1,4.6255164E-2,4.6495295E-1,-5.606608E-1,-1.4356805E-1,-3.8799345E-2,1.1974588E-1,-1.728504E-1,1.18551195E-1,-5.751137E-2,8.668363E-3,1.371382E-1,3.378445E-2,-2.1513593E-1,3.98134E-2],"categories":[],"categories_nodes":[],"categories_segments":[],"categories_sizes":[],"default_left":[1,1,1,0,1,1,0,0,1,1,0,0,1,1,1,1,0,0,0,0,0,0,0],"id":0,"left_children":[1,3,5,-1,7,9,-1,-1,11,13,-1,-1,15,17,19,21,-1,-1,-1,-1,-1,-1,-1],"loss_changes":[9.1330765E1,1.3327835E1,8.530457E0,0E0,1.7791939E0,6.9093037E-1,0E0,0E0,5.731876E-1,4.8401076E-2,0E0,0E0,1.2794814E-1,4.051397E-3,1.3471432E-3,1.2546915E-1,0E0,0E0,0E0,0E0,0E0,0E0,0E0],"parents":[2147483647,0,0,1,1,2,2,4,4,5,5,8,8,9,9,12,12,13,13,14,14,15,15],"right_children":[2,4,6,-1,8,10,-1,-1,12,14,-1,-1,16,18,20,22,-1,-1,-1,-1,-1,-1,-1],"split_conditions":[4.669556E-1,-2.786931E-1,1.0298116E0,-4.0173593E-1,8.187039E-2,6.7337304E-1,4.0022862E-1,-2.2508319E-1,-5.4301345E-1,4.623239E-1,1.394859E-1,-1.6819824E-1,1.4038168E0,4E0,1E0,1.5834622E0,3.556536E-2,-1.7253412E-2,2.600509E-3,4.114146E-2,1.0135335E-2,-6.454078E-2,1.194402E-2],"split_indices":[5,3,3,0,1,3,0,0,4,3,0,0,4,0,0,1,0,0,0,0,0,0,0],"split_type":[0,0,0,0,0,0,0,0,0,0,0,0,0,0,0,0,0,0,0,0,0,0,0],"sum_hessian":[1.24E2,8.9E1,3.5E1,5.6E1,3.3E1,1.8E1,1.7E1,1.6E1,1.7E1,6E0,1.2E1,4E0,1.3E1,3E0,3E0,1.2E1,1E0,2E0,1E0,2E0,1E0,1E1,2E0],"tree_param":{"num_deleted":"0","num_feature":"6","num_nodes":"23","size_leaf_vector":"0"}},{"base_weights":[-3.575747E-1,-7.393389E-1,6.0676837E-1,-9.3554133E-1,-3.544863E-1,2.6120937E-1,9.776161E-1,-1.0946622E0,-7.670749E-1,-5.339842E-1,-2.0356749E-1,9.938831E-2,4.1309163E-1,-4.261022E-1,-1.158181E-1,-1.3171506E-2,1.6558984E-1,-1.3848633E-1,1.0076851E-1,-4.6009105E-2,2.4056593E-2,2.0847674E-1,3.891508E-2,-1.6953006E-1,3.1850737E-2,2.8716773E-2,7.3681176E-3,-6.133169E-3,6.4505786E-2],"categories":[],"categories_nodes":[],"categories_segments":[],"categories_sizes":[],"default_left":[1,1,1,1,1,1,0,0,0,0,1,1,0,0,1,1,1,1,0,0,1,0,1,0,0,0,0,0,0],"id":1,"left_children":[1,3,5,7,9,11,-1,-1,-1,-1,13,15,-1,-1,17,19,21,23,-1,-1,25,-1,27,-1,-1,-1,-1,-1,-1],"loss_changes":[4.646756E1,6.464176E0,4.3580284E0,7.418976E-1,7.5816536E-1,4.5049858E-1,0E0,0E0,0E0,0E0,3.216681E-1,8.414903E-2,0E0,0E0,8.7599576E-2,7.2192294E-3,2.9915914E-2,7.943022E-2,0E0,0E0,2.1725311E-5,0E0,3.8540745E-3,0E0,0E0,0E0,0E0,0E0,0E0],"parents":[2147483647,0,0,1,1,2,2,3,3,4,4,5,5,10,10,11,11,14,14,15,15,16,16,17,17,20,20,22,22],"right_children":[2,4,6,8,10,12,-1,-1,-1,-1,14,16,-1,-1,18,20,22,24,-1,-1,26,-1,28,-1,-1,-1,-1,-1,-1],"split_conditions":[4.669556E-1,-2.0834339E-1,1.0720215E0,-8.091841E-1,4.8868373E-2,7.133807E-1,2.9328483E-1,-3.2839867E-1,-2.3012248E-1,-1.6019526E-1,-5.4301345E-1,5.889534E-1,1.239275E-1,-1.2783067E-1,1.4038168E0,1.0961179E0,8.234525E-1,1.5834622E0,3.0230554E-2,-1.3802732E-2,4E0,6.254303E-2,6.31904E-1,-5.0859023E-2,9.555222E-3,8.615032E-3,2.2104355E-3,-1.8399508E-3,1.9351736E-2],"split_indices":[5,3,3,1,1,2,0,0,0,0,4,3,0,0,4,5,3,1,0,0,0,0,1,0,0,0,0,0,0],"split_type":[0,0,0,0,0,0,0,0,0,0,0,0,0,0,0,0,0,0,0,0,0,0,0,0,0,0,0,0,0],"sum_hessian":[1.24E2,8.9E1,3.5E1,5.8E1,3.1E1,1.9E1,1.6E1,2.7E1,3.1E1,1.3E1,1.8E1,1E1,9E0,4E0,1.4E1,4E0,6E0,1.3E1,1E0,2E0,2E0,4E0,2E0,1.1E1,2E0,1E0,1E0,1E0,1E0],"tree_param":{"num_deleted":"0","num_feature":"6","num_nodes":"29","size_leaf_vector":"0"}},{"base_weights":[-2.5320894E-1,-5.2706635E-1,4.3846816E-1,-7.1472114E-1,-3.146381E-1,1.3174339E-1,6.5128374E-1,-8.28725E-1,-6.153834E-1,-4.2298943E-1,-1.4980797E-1,-9.815502E-3,1.7974764E-1,1.3315576E-1,6.9881535E-1,-3.2383764E-1,-8.181088E-2,-3.680728E-2,2.044811E-2,6.801522E-2,1.9529259E-1,5.103444E-1,8.1740475E-1,-1.21950045E-1,2.2857457E-2,2.4409264E-2,6.2628984E-3,2.2310476E-1,5.542662E-1,-1.8935162E-1,-3.197825E-3,-1.4254786E-2,8.5653216E-2],"categories":[],"categories_nodes":[],"categories_segments":[],"categories_sizes":[],"default_left":[1,1,1,1,1,1,1,0,0,0,1,1,1,0,1,0,1,0,1,0,0,1,0,1,1,0,0,0,0,0,0,0,0],"id":2,"left_children":[1,3,5,7,9,11,13,-1,-1,-1,15,17,19,-1,21,-1,23,-1,25,-1,-1,27,-1,29,31,-1,-1,-1,-1,-1,-1,-1,-1],"loss_changes":[2.3908712E1,3.3628063E0,2.2641273E0,2.2287369E-2,7.224536E-1,1.1049116E-1,4.2412472E-1,0E0,0E0,0E0,1.983433E-1,4.836982E-3,7.559657E-3,0E0,7.505417E-3,0E0,6.580696E-2,0E0,1.5696627E-5,0E0,0E0,2.5014877E-3,0E0,8.743946E-2,1.2873426E-2,0E0,0E0,0E0,0E0,0E0,0E0,0E0,0E0],"parents":[2147483647,0,0,1,1,2,2,3,3,4,4,5,5,6,6,10,10,11,11,12,12,14,14,16,16,18,18,21,21,23,23,24,24],"right_children":[2,4,6,8,10,12,14,-1,-1,-1,16,18,20,-1,22,-1,24,-1,26,-1,-1,28,-1,30,32,-1,-1,-1,-1,-1,-1,-1,-1],"split_conditions":[4.669556E-1,-4.9566495E-1,9.922917E-1,-1.0676999E0,4.8868373E-2,5.889534E-1,1.0267344E0,-2.486175E-1,-1.8461502E-1,-1.2689683E-1,-5.4301345E-1,1.0961179E0,4.6689394E-1,3.994673E-2,1.4598645E0,-9.7151294E-2,1.1874933E0,-1.1042184E-2,4E0,2.0404566E-2,5.858778E-2,1.1236112E0,2.4522144E-1,1.3304467E0,4.5589328E-1,7.3227794E-3,1.8788696E-3,6.6931434E-2,1.6627987E-1,-5.6805488E-2,-9.593475E-4,-4.276436E-3,2.5695967E-2],"split_indices":[5,1,3,1,1,3,5,0,0,0,4,5,1,0,5,0,4,0,0,0,0,3,0,1,1,0,0,0,0,0,0,0,0],"split_type":[0,0,0,0,0,0,0,0,0,0,0,0,0,0,0,0,0,0,0,0,0,0,0,0,0,0,0,0,0,0,0,0,0],"sum_hessian":[1.24E2,8.9E1,3.5E1,4.6E1,4.3E1,1.5E1,2E1,1.8E1,2.8E1,2.5E1,1.8E1,4E0,1.1E1,2E0,1.8E1,4E0,1.4E1,2E0,2E0,2E0,9E0,9E0,9E0,1E1,4E0,1E0,1E0,2E0,7E0,6E0,4E0,3E0,1E0],"tree_param":{"num_deleted":"0","num_feature":"6","num_nodes":"33","size_leaf_vector":"0"}},{"base_weights":[-1.78031E-1,-3.7665337E-1,3.2347023E-1,-5.0693923E-1,-2.2245862E-1,1.6631834E-1,5.585433E-1,-5.9950995E-1,-4.3683562E-1,-3.127677E-1,-1.2203776E-1,5.2735444E-2,2.4963324E-1,-1.5479174E-1,2.0284116E-2,-1.9422635E-2,8.222255E-2,1.8513073E-1,4.0293133E-1,-1.9814998E-1,-2.4303556E-3,-1.1047468E-2,7.2805226E-2,-2.9445827E-2,5.3234696E-3,1.1262042E-1,-5.98071E-3,-1.1866911E-1,-2.606781E-1,-6.501143E-2,2.9467769E-2,-3.3527553E-2,7.621745E-3,5.118306E-2,1.5699677E-1,-3.4507096E-2,2.553603E-2],"categories":[],"categories_nodes":[],"categories_segments":[],"categories_sizes":[],"default_left":[1,1,1,1,1,1,0,0,0,0,1,1,1,1,1,1,1,0,0,1,1,1,0,0,0,1,1,0,0,0,0,0,0,0,0,0,0],"id":3,"left_children":[1,3,5,7,9,11,-1,-1,-1,-1,13,15,17,19,21,23,25,-1,-1,27,29,31,-1,-1,-1,33,35,-1,-1,-1,-1,-1,-1,-1,-1,-1,-1],"loss_changes":[1.2573008E1,1.6952724E0,1.2370226E0,4.961109E-2,3.51794E-1,2.0448786E-1,0E0,0E0,0E0,0E0,1.0569519E-1,2.5002042E-2,5.395049E-2,1.1842853E-1,9.032162E-3,1.1488938E-3,2.2123076E-2,0E0,0E0,3.8642645E-2,1.1896836E-2,1.9342805E-3,0E0,0E0,0E0,8.322626E-3,3.5783502E-3,0E0,0E0,0E0,0E0,0E0,0E0,0E0,0E0,0E0,0E0],"parents":[2147483647,0,0,1,1,2,2,3,3,4,4,5,5,10,10,11,11,12,12,13,13,14,14,15,15,16,16,19,19,20,20,21,21,25,25,26,26],"right_children":[2,4,6,8,10,12,-1,-1,-1,-1,14,16,18,20,22,24,26,-1,-1,28,30,32,-1,-1,-1,34,36,-1,-1,-1,-1,-1,-1,-1,-1,-1,-1],"split_conditions":[4.669556E-1,-4.991222E-1,1.1236112E0,-1.133704E0,1.208572E-2,7.133807E-1,1.67563E-1,-1.7985299E-1,-1.3105069E-1,-9.383032E-2,1.1874933E0,4.623239E-1,1.7806251E0,1.3579485E0,4.5589328E-1,4E0,8.234525E-1,5.553922E-2,1.20879404E-1,4.008899E-1,9.017633E-3,3.073842E-1,2.1841569E-2,-8.833748E-3,1.5970409E-3,6.8275297E-1,6.31904E-1,-3.5600733E-2,-7.820344E-2,-1.950343E-2,8.840331E-3,-1.0058266E-2,2.2865236E-3,1.5354918E-2,4.7099035E-2,-1.0352129E-2,7.6608094E-3],"split_indices":[5,3,3,1,3,2,0,0,0,0,4,3,5,1,1,0,3,0,0,1,5,1,0,0,0,3,1,0,0,0,0,0,0,0,0,0,0],"split_type":[0,0,0,0,0,0,0,0,0,0,0,0,0,0,0,0,0,0,0,0,0,0,0,0,0,0,0,0,0,0,0,0,0,0,0,0,0],"sum_hessian":[1.24E2,8.9E1,3.5E1,4.7E1,4.2E1,2.2E1,1.3E1,1.7E1,3E1,2.1E1,2.1E1,1E1,1.2E1,1.7E1,4E0,3E0,7E0,1E1,2E0,1.3E1,4E0,3E0,1E0,2E0,1E0,5E0,2E0,7E0,6E0,1E0,3E0,1E0,2E0,3E0,2E0,1E0,1E0],"tree_param":{"num_deleted":"0","num_feature":"6","num_nodes":"37","size_leaf_vector":"0"}},{"base_weights":[-1.2557068E-1,-2.6938105E-1,2.3744327E-1,-3.341833E-1,-1.1395517E-1,1.4383623E-1,4.6643794E-1,-4.0729272E-1,-2.680376E-1,-1.7308469E-1,-4.2462457E-2,6.8074346E-2,2.4784675E-1,-2.7216768E-1,-6.174194E-2,-6.0615778E-2,4.4304986E-2,-7.0958612E-3,9.1749474E-2,2.7191198E-1,9.303554E-2,-1.1402785E-3,-9.021099E-2,4.573047E-3,6.1884433E-2,-2.355667E-2,1.1730234E-2,9.907998E-2,1.8917024E-3,-3.813663E-2,3.6236167E-2,-2.0830604E-1,-1.6128302E-2,-2.8655782E-2,-6.679222E-3,1.13034666E-1,5.693649E-2],"categories":[],"categories_nodes":[],"categories_segments":[],"categories_sizes":[],"default_left":[1,1,1,1,1,1,0,0,1,0,1,1,1,0,0,1,1,1,1,0,0,1,1,0,0,1,0,1,0,0,0,0,0,0,0,0,0],"id":4,"left_children":[1,3,5,7,9,11,-1,-1,13,-1,15,17,19,-1,-1,21,23,25,27,-1,-1,29,31,-1,-1,33,-1,35,-1,-1,-1,-1,-1,-1,-1,-1,-1],"loss_changes":[6.589608E0,8.683934E-1,7.0458794E-1,1.9549036E-1,1.1101562E-1,1.9588894E-1,0E0,0E0,1.3868809E-2,0E0,2.4737226E-2,3.0905336E-2,1.568371E-2,0E0,0E0,2.1019422E-2,1.8123961E-3,1.825789E-3,8.375712E-3,0E0,0E0,8.295885E-3,6.6630766E-2,0E0,0E0,6.678165E-5,0E0,6.213933E-4,0E0,0E0,0E0,0E0,0E0,0E0,0E0,0E0,0E0],"parents":[2147483647,0,0,1,1,2,2,3,3,4,4,5,5,8,8,10,10,11,11,12,12,15,15,16,16,17,17,18,18,21,21,22,22,25,25,27,27],"right_children":[2,4,6,8,10,12,-1,-1,14,-1,16,18,20,-1,-1,22,24,26,28,-1,-1,30,32,-1,-1,34,-1,36,-1,-1,-1,-1,-1,-1,-1,-1,-1],"split_conditions":[4.669556E-1,-9.396292E-2,1.4598645E0,-7.542099E-1,1.0937208E-1,1.0204315E0,1.3993138E-1,-1.2218782E-1,1.071931E0,-5.192541E-2,1.2448772E0,5.889534E-1,1.3443451E0,-8.165031E-2,-1.8522583E-2,4.008899E-1,4.5589328E-1,1.0961179E0,1.088432E0,8.15736E-2,2.7910663E-2,3.073842E-1,9.289222E-1,1.3719142E-3,1.856533E-2,1E0,3.5190703E-3,8.328324E-1,5.675107E-4,-1.144099E-2,1.0870851E-2,-6.2491816E-2,-4.838491E-3,-8.596735E-3,-2.0037666E-3,3.39104E-2,1.7080948E-2],"split_indices":[5,5,5,4,1,3,0,0,1,0,4,3,5,0,0,1,1,5,1,0,0,1,1,0,0,0,0,3,0,0,0,0,0,0,0,0,0],"split_type":[0,0,0,0,0,0,0,0,0,0,0,0,0,0,0,0,0,0,0,0,0,0,0,0,0,0,0,0,0,0,0,0,0,0,0,0,0],"sum_hessian":[1.24E2,8.9E1,3.5E1,6.2E1,2.7E1,2.6E1,9E0,2.7E1,3.5E1,1.4E1,1.3E1,1.6E1,1E1,3.4E1,1E0,1.1E1,2E0,4E0,1.2E1,8E0,2E0,4E0,7E0,1E0,1E0,2E0,2E0,1.1E1,1E0,2E0,2E0,2E0,5E0,1E0,1E0,7E0,4E0],"tree_param":{"num_deleted":"0","num_feature":"6","num_nodes":"37","size_leaf_vector":"0"}},{"base_weights":[-8.8126324E-2,-2.0052047E-1,1.5572423E-1,-2.652714E-1,-1.2637018E-1,9.109589E-2,3.4049967E-1,-3.3237022E-1,-2.2762592E-1,-1.5744852E-1,-7.140506E-2,-1.2633703E-2,1.2772503E-1,5.097973E-1,2.3445061E-1,-8.8463776E-2,3.769018E-2,-4.880177E-2,1.3583958E-2,5.3767934E-2,1.6358429E-1,6.6773295E-3,2.6603574E-1,4.434578E-2,-1.0111773E-1,-1.9412836E-3,2.18319E-2,1.0354373E-1,1.16227465E-2,7.1094796E-2,1.9075367E-1,-1.251038E-1,-9.876609E-3,-5.6773424E-3,2.765417E-3,-1.993303E-2,4.9822867E-2,2.0833391E-1,7.44284E-2],"categories":[],"categories_nodes":[],"categories_segments":[],"categories_sizes":[],"default_left":[1,1,1,1,1,1,1,0,0,0,1,1,1,0,1,1,0,0,1,1,1,0,0,0,1,1,0,0,1,0,1,0,0,0,0,0,0,0,0],"id":5,"left_children":[1,3,5,7,9,11,13,-1,-1,-1,15,17,19,-1,21,23,-1,-1,25,27,29,-1,-1,-1,31,33,-1,-1,35,-1,37,-1,-1,-1,-1,-1,-1,-1,-1],"loss_changes":[3.4571471E0,3.7938952E-1,4.4665104E-1,3.8012505E-2,6.0502768E-2,1.1939895E-1,6.0016155E-2,0E0,0E0,0E0,3.4971632E-2,9.197099E-3,5.220151E-2,0E0,5.577761E-2,2.9692635E-2,0E0,0E0,8.1068976E-4,1.7676828E-2,2.4131626E-2,0E0,0E0,0E0,2.9403612E-2,6.845375E-5,0E0,0E0,8.225728E-3,0E0,6.98933E-3,0E0,0E0,0E0,0E0,0E0,0E0,0E0,0E0],"parents":[2147483647,0,0,1,1,2,2,3,3,4,4,5,5,6,6,10,10,11,11,12,12,14,14,15,15,18,18,19,19,20,20,24,24,25,25,28,28,30,30],"right_children":[2,4,6,8,10,12,14,-1,-1,-1,16,18,20,-1,22,24,-1,-1,26,28,30,-1,-1,-1,32,34,-1,-1,36,-1,38,-1,-1,-1,-1,-1,-1,-1,-1],"split_conditions":[4.4466767E-1,-4.3695146E-1,1.4598645E0,-1.223802E0,-1.4530205E-2,6.7337304E-1,1.6373882E0,-9.971107E-2,-6.828778E-2,-4.7234558E-2,1.3304467E0,2.193788E-1,9.9133754E-1,1.5293919E-1,1.7250702E0,2.8843503E-4,1.1307055E-2,-1.46405315E-2,4.3887398E-1,8.234525E-1,9.547719E-1,2.003199E-3,7.981072E-2,1.3303735E-2,1.1874933E0,4E0,6.5495702E-3,3.1063119E-2,1.4788439E0,2.132844E-2,1.3443451E0,-3.753114E-2,-2.9629827E-3,-1.7032028E-3,8.296252E-4,-5.979909E-3,1.494686E-2,6.250018E-2,2.2328522E-2],"split_indices":[5,5,5,4,5,3,5,0,0,0,1,1,5,0,5,5,0,0,3,3,3,0,0,0,4,0,0,0,4,0,5,0,0,0,0,0,0,0,0],"split_type":[0,0,0,0,0,0,0,0,0,0,0,0,0,0,0,0,0,0,0,0,0,0,0,0,0,0,0,0,0,0,0,0,0,0,0,0,0,0,0],"sum_hessian":[1.24E2,8.5E1,3.9E1,4.4E1,4.1E1,3E1,9E0,1.3E1,3.1E1,2.5E1,1.6E1,8E0,2.2E1,2E0,7E0,1.4E1,2E0,3E0,5E0,8E0,1.4E1,1E0,6E0,1E0,1.3E1,2E0,3E0,3E0,5E0,4E0,1E1,1E1,3E0,1E0,1E0,3E0,2E0,8E0,2E0],"tree_param":{"num_deleted":"0","num_feature":"6","num_nodes":"39","size_leaf_vector":"0"}},{"base_weights":[-6.056156E-2,-1.3718605E-1,1.3268192E-1,-1.971746E-1,-8.296758E-2,7.9292946E-2,2.6356396E-1,-2.4306998E-1,-1.7071411E-1,-1.13295294E-1,-2.4442332E-2,3.2485325E-2,1.2720229E-1,8.8736854E-2,2.9617864E-1,-1.2576142E-1,-7.329369E-2,-3.2802466E-2,2.8292507E-2,-4.5904815E-3,4.638475E-2,1.3528782E-1,1.5087962E-2,3.4974787E-1,9.031399E-2,-1.2858813E-1,-3.1786956E-2,-8.895139E-2,-3.9845712E-2,-1.3937569E-2,-7.151773E-2,5.3685755E-3,3.7070185E-2,-1.4575253E-2,6.9244504E-3,6.596172E-2,-4.3653697E-3,3.912908E-2,1.5060666E-1,-8.047238E-3,-4.5783523E-2,-5.919441E-2,7.7251997E-3,-1.3006668E-1,-2.4363823E-2,1.7202219E-2,7.934785E-2,-3.4881562E-2,1.7433882E-2,5.4095715E-2,4.5979023E-3,1.6483678E-1,6.2457442E-2],"categories":[],"categories_nodes":[],"categories_segments":[],"categories_sizes":[],"default_left":[1,1,1,1,1,1,1,0,0,1,1,1,1,0,1,1,1,1,1,1,1,1,0,0,0,0,0,0,1,1,1,0,0,0,0,1,1,1,1,0,0,0,0,0,0,0,0,0,0,0,0,0,0],"id":6,"left_children":[1,3,5,7,9,11,13,-1,-1,15,17,19,21,-1,23,25,27,29,31,33,35,37,-1,-1,-1,-1,-1,-1,39,41,43,-1,-1,-1,-1,45,47,49,51,-1,-1,-1,-1,-1,-1,-1,-1,-1,-1,-1,-1,-1,-1],"loss_changes":[1.8691E0,2.7636468E-1,2.3065692E-1,9.509921E-3,8.420271E-2,5.6415886E-2,3.073734E-2,0E0,0E0,6.7397356E-3,8.863733E-3,7.942915E-3,9.743333E-3,0E0,5.663693E-2,2.0222664E-3,1.6928501E-3,1.0688968E-2,4.0464266E-4,6.757954E-4,1.1216816E-2,1.1783376E-2,0E0,0E0,0E0,0E0,0E0,0E0,5.756356E-4,1.2221951E-2,1.0635138E-2,0E0,0E0,0E0,0E0,3.8566478E-3,3.2690417E-3,1.3017198E-3,2.248451E-3,0E0,0E0,0E0,0E0,0E0,0E0,0E0,0E0,0E0,0E0,0E0,0E0,0E0,0E0],"parents":[2147483647,0,0,1,1,2,2,3,3,4,4,5,5,6,6,9,9,10,10,11,11,12,12,14,14,15,15,16,16,17,17,18,18,19,19,20,20,21,21,28,28,29,29,30,30,35,35,36,36,37,37,38,38],"right_children":[2,4,6,8,10,12,14,-1,-1,16,18,20,22,-1,24,26,28,30,32,34,36,38,-1,-1,-1,-1,-1,-1,40,42,44,-1,-1,-1,-1,46,48,50,52,-1,-1,-1,-1,-1,-1,-1,-1,-1,-1,-1,-1,-1,-1],"split_conditions":[4.669556E-1,-5.952122E-1,1.269943E0,-1.3272485E0,3.5535626E-2,9.547719E-1,1.2431045E0,-7.292099E-2,-5.1214237E-2,-6.452428E-2,1.2448772E0,5.889534E-1,1.253442E0,2.6621057E-2,1.8780861E0,3.4780654E-1,-1.7621538E-1,3.841932E-1,4.5589328E-1,1.0961179E0,8.328324E-1,9.9133754E-1,4.526389E-3,1.04924366E-1,2.7094198E-2,-3.857644E-2,-9.5360875E-3,-2.6685417E-2,-2.3714912E-1,-1.8279862E-2,4.2762923E-1,1.6105727E-3,1.1121056E-2,-4.3725763E-3,2.0773353E-3,4.6689394E-1,6.31904E-1,1E0,1.2643106E0,-2.4141716E-3,-1.3735058E-2,-1.7758323E-2,2.31756E-3,-3.9020006E-2,-7.309147E-3,5.160666E-3,2.3804355E-2,-1.0464469E-2,5.2301646E-3,1.6228715E-2,1.3793707E-3,4.9451035E-2,1.8737234E-2],"split_indices":[5,4,1,4,3,3,5,0,0,4,4,3,1,0,5,5,5,5,1,5,3,5,0,0,0,0,0,0,1,5,5,0,0,0,0,1,1,0,3,0,0,0,0,0,0,0,0,0,0,0,0,0,0],"split_type":[0,0,0,0,0,0,0,0,0,0,0,0,0,0,0,0,0,0,0,0,0,0,0,0,0,0,0,0,0,0,0,0,0,0,0,0,0,0,0,0,0,0,0,0,0,0,0,0,0,0,0,0,0],"sum_hessian":[1.24E2,8.9E1,3.5E1,4.1E1,4.8E1,2.6E1,9E0,1.2E1,2.9E1,3.1E1,1.7E1,1.4E1,1.2E1,2E0,7E0,2.2E1,9E0,1.5E1,2E0,4E0,1E1,1.1E1,1E0,5E0,2E0,2.1E1,1E0,5E0,4E0,1.1E1,4E0,1E0,1E0,2E0,2E0,7E0,3E0,2E0,9E0,1E0,3E0,3E0,8E0,1E0,3E0,2E0,5E0,1E0,2E0,1E0,1E0,7E0,2E0],"tree_param":{"num_deleted":"0","num_feature":"6","num_nodes":"53","size_leaf_vector":"0"}},{"base_weights":[-4.234288E-2,-9.8964915E-2,1.003884E-1,-1.4097783E-1,-6.0934152E-2,8.20482E-2,3.7114775E-1,-1.7093244E-1,-1.18005544E-1,-7.879042E-2,-1.0665588E-2,2.4168748E-2,1.19483605E-1,-9.012484E-2,-5.4541707E-2,3.7975505E-3,-3.7458748E-2,-3.6723912E-3,3.462665E-2,5.4464273E-2,1.418604E-1,-6.1800472E-2,-7.326074E-3,-1.9264137E-2,2.2382699E-2,-1.1055668E-1,8.454904E-3,-1.1660208E-2,5.5395565E-3,4.9793817E-2,-4.3643415E-3,2.2066215E-2,1.24426305E-1,7.999827E-2,1.7421311E-1,-4.1611087E-2,-8.17434E-2,1.217496E-2,-2.3164071E-2,-2.6885485E-2,-5.2214116E-3,-6.778054E-4,4.566914E-2,-9.73324E-3,3.1509668E-2,-1.4850855E-2,-2.6394576E-3,6.9974065E-3,1.311928E-3,1.3761759E-2,5.9510875E-2,-2.9649317E-2,1.3947089E-2,-1.0094364E-2,4.0670097E-2,1.9302349E-1,7.225116E-2],"categories":[],"categories_nodes":[],"categories_segments":[],"categories_sizes":[],"default_left":[1,1,1,1,1,1,0,0,0,1,1,1,1,0,1,1,1,1,1,1,1,1,1,1,1,0,1,1,1,1,1,1,0,0,1,0,0,0,0,0,0,0,0,0,0,0,0,0,0,0,0,0,0,0,0,0,0],"id":7,"left_children":[1,3,5,7,9,11,-1,-1,-1,13,15,17,19,-1,21,23,25,27,29,31,33,35,37,39,41,-1,43,45,47,49,51,53,-1,-1,55,-1,-1,-1,-1,-1,-1,-1,-1,-1,-1,-1,-1,-1,-1,-1,-1,-1,-1,-1,-1,-1,-1],"loss_changes":[1.0201519E0,1.3521016E-1,1.4831612E-1,8.730352E-3,4.3142498E-2,7.294816E-2,0E0,0E0,0E0,4.9788654E-3,5.567436E-3,4.494562E-3,2.2827059E-2,0E0,4.345428E-3,4.717232E-3,1.7715711E-2,4.325091E-4,6.7225285E-3,1.3120821E-2,1.6084373E-2,1.4301911E-3,1.2085936E-3,3.9474224E-4,3.2529368E-3,0E0,1.9839844E-3,4.7147885E-5,9.3096605E-6,1.9820295E-3,2.265538E-3,4.0004086E-3,0E0,0E0,3.3153296E-3,0E0,0E0,0E0,0E0,0E0,0E0,0E0,0E0,0E0,0E0,0E0,0E0,0E0,0E0,0E0,0E0,0E0,0E0,0E0,0E0,0E0,0E0],"parents":[2147483647,0,0,1,1,2,2,3,3,4,4,5,5,9,9,10,10,11,11,12,12,14,14,15,15,16,16,17,17,18,18,19,19,20,20,21,21,22,22,23,23,24,24,26,26,27,27,28,28,29,29,30,30,31,31,34,34],"right_children":[2,4,6,8,10,12,-1,-1,-1,14,16,18,20,-1,22,24,26,28,30,32,34,36,38,40,42,-1,44,46,48,50,52,54,-1,-1,56,-1,-1,-1,-1,-1,-1,-1,-1,-1,-1,-1,-1,-1,-1,-1,-1,-1,-1,-1,-1,-1,-1],"split_conditions":[4.669556E-1,-5.952122E-1,2.6945302E0,-1.2382103E0,1.0937208E-1,9.547719E-1,1.1134433E-1,-5.1279735E-2,-3.5401665E-2,-6.452428E-2,3.841932E-1,5.889534E-1,7.405902E-1,-2.7037453E-2,1.8786123E-1,-3.271423E-1,4.2762923E-1,1.0961179E0,8.328324E-1,1.8055828E0,1.2431045E0,-9.109386E-2,-5.013768E-2,9.017633E-3,3.5688722E-1,-3.3167005E-2,1.3912195E0,1E0,4E0,4.6689394E-1,6.31904E-1,1.253442E0,3.7327893E-2,2.3999482E-2,1.5944629E0,-1.2483327E-2,-2.452302E-2,3.652488E-3,-6.9492217E-3,-8.065646E-3,-1.5664236E-3,-2.0334162E-4,1.3700742E-2,-2.9199722E-3,9.452901E-3,-4.4552567E-3,-7.918373E-4,2.099222E-3,3.9357843E-4,4.128528E-3,1.7853264E-2,-8.894796E-3,4.184127E-3,-3.0283094E-3,1.220103E-2,5.790705E-2,2.167535E-2],"split_indices":[5,4,1,1,1,3,0,0,0,4,5,3,4,0,5,4,5,5,3,5,5,3,1,5,1,0,4,0,0,1,1,1,0,0,1,0,0,0,0,0,0,0,0,0,0,0,0,0,0,0,0,0,0,0,0,0,0],"split_type":[0,0,0,0,0,0,0,0,0,0,0,0,0,0,0,0,0,0,0,0,0,0,0,0,0,0,0,0,0,0,0,0,0,0,0,0,0,0,0,0,0,0,0,0,0,0,0,0,0,0,0,0,0,0,0,0,0],"sum_hessian":[1.24E2,8.9E1,3.5E1,4.1E1,4.8E1,3.4E1,1E0,1.5E1,2.6E1,3.5E1,1.3E1,1.4E1,2E1,2.2E1,1.3E1,9E0,4E0,4E0,1E1,6E0,1.4E1,1.1E1,2E0,4E0,5E0,1E0,3E0,2E0,2E0,7E0,3E0,5E0,1E0,6E0,8E0,7E0,4E0,1E0,1E0,2E0,2E0,3E0,2E0,2E0,1E0,1E0,1E0,1E0,1E0,2E0,5E0,1E0,2E0,2E0,3E0,6E0,2E0],"tree_param":{"num_deleted":"0","num_feature":"6","num_nodes":"57","size_leaf_vector":"0"}},{"base_weights":[-2.8846798E-2,-7.123979E-2,7.793698E-2,-1.0335094E-1,-4.348385E-2,6.213657E-2,3.1547558E-1,-1.0994065E-1,-4.6587545E-2,-5.5007532E-2,-1.7878614E-2,1.7885918E-2,9.0785295E-2,-5.4374933E-2,-3.825307E-3,-6.997983E-2,-3.7811056E-2,-2.4455521E-2,2.0965457E-2,-6.8758056E-3,2.4649331E-2,4.4767916E-2,1.0620772E-1,-4.5067154E-2,-8.291198E-2,2.4154583E-2,-4.706642E-2,-3.790013E-2,1.0013724E-2,4.6649575E-3,2.6783228E-2,-1.2623221E-2,-7.5226027E-4,3.474698E-2,-4.2327046E-3,1.6975114E-2,1.0576236E-1,5.9427314E-2,1.3079162E-1,3.7737876E-2,-1.5060008E-3,-5.3700432E-2,-2.1731507E-2,3.11493E-3,-6.17823E-2,-1.6311198E-2,2.0672753E-2,-2.2435337E-3,1.1151433E-3,1.12309605E-2,4.463316E-2,-2.5201917E-2,1.1157672E-2,1.5135169E-3,4.7141552E-2,6.889107E-2,2.3845276E-2],"categories":[],"categories_nodes":[],"categories_segments":[],"categories_sizes":[],"default_left":[1,1,1,1,1,1,0,0,1,1,1,1,1,0,0,1,1,1,1,1,1,1,1,0,0,1,1,1,1,0,0,0,1,1,1,1,0,1,0,0,0,0,0,0,0,0,0,0,0,0,0,0,0,0,0,0,0],"id":8,"left_children":[1,3,5,7,9,11,-1,-1,13,15,17,19,21,-1,-1,23,25,27,29,31,33,35,37,-1,-1,39,41,43,45,-1,-1,-1,47,49,51,53,-1,55,-1,-1,-1,-1,-1,-1,-1,-1,-1,-1,-1,-1,-1,-1,-1,-1,-1,-1,-1],"loss_changes":[5.714127E-1,7.572067E-2,1.1551283E-1,1.0214359E-2,1.3769865E-2,4.274659E-2,0E0,0E0,1.7900364E-3,6.1079934E-3,4.8557767E-3,2.681591E-3,1.0148987E-2,0E0,0E0,1.7403662E-3,1.1460133E-2,7.3309047E-3,1.5955511E-4,1.3128227E-4,3.6467612E-3,1.0071119E-2,9.478077E-3,0E0,0E0,1.1024988E-3,1.5221611E-3,1.0967262E-2,1.7401881E-3,0E0,0E0,0E0,1.0856291E-5,1.5910789E-3,1.5720909E-3,2.7271784E-3,0E0,7.1445294E-4,0E0,0E0,0E0,0E0,0E0,0E0,0E0,0E0,0E0,0E0,0E0,0E0,0E0,0E0,0E0,0E0,0E0,0E0,0E0],"parents":[2147483647,0,0,1,1,2,2,3,3,4,4,5,5,8,8,9,9,10,10,11,11,12,12,15,15,16,16,17,17,18,18,19,19,20,20,21,21,22,22,25,25,26,26,27,27,28,28,32,32,33,33,34,34,35,35,37,37],"right_children":[2,4,6,8,10,12,-1,-1,14,16,18,20,22,-1,-1,24,26,28,30,32,34,36,38,-1,-1,40,42,44,46,-1,-1,-1,48,50,52,54,-1,56,-1,-1,-1,-1,-1,-1,-1,-1,-1,-1,-1,-1,-1,-1,-1,-1,-1,-1,-1],"split_conditions":[4.669556E-1,-6.001713E-1,2.6945302E0,-2.4415779E-1,1.0937208E-1,9.547719E-1,9.464268E-2,-3.2982197E-2,-6.1393523E-1,-3.858602E-1,1.2448772E0,4.623239E-1,7.405902E-1,-1.631248E-2,-1.1475921E-3,-4.2966092E-1,-3.446347E-1,1.3579485E0,4.5589328E-1,1E0,8.328324E-1,1.8055828E0,1.2431045E0,-1.3520147E-2,-2.4873596E-2,3E0,1.8786123E-1,4.008899E-1,9.017633E-3,1.3994873E-3,8.034969E-3,-3.7869664E-3,4E0,6.7337304E-1,6.31904E-1,2.5E0,3.172871E-2,2.059898E0,3.9237488E-2,1.1321363E-2,-4.5180024E-4,-1.611013E-2,-6.519452E-3,9.34479E-4,-1.853469E-2,-4.8933597E-3,6.2018265E-3,-6.7306013E-4,3.34543E-4,3.3692883E-3,1.3389949E-2,-7.5605754E-3,3.3473016E-3,4.540551E-4,1.4142466E-2,2.0667322E-2,7.153583E-3],"split_indices":[5,1,1,4,1,3,0,0,5,4,4,3,4,0,0,1,4,1,1,0,3,5,5,0,0,0,5,1,5,0,0,0,0,3,1,0,0,4,0,0,0,0,0,0,0,0,0,0,0,0,0,0,0,0,0,0,0],"split_type":[0,0,0,0,0,0,0,0,0,0,0,0,0,0,0,0,0,0,0,0,0,0,0,0,0,0,0,0,0,0,0,0,0,0,0,0,0,0,0,0,0,0,0,0,0,0,0,0,0,0,0,0,0,0,0,0,0],"sum_hessian":[1.24E2,8.9E1,3.5E1,4E1,4.9E1,3.4E1,1E0,3.5E1,5E0,3.3E1,1.6E1,1.4E1,2E1,4E0,1E0,1.6E1,1.7E1,1.4E1,2E0,3E0,1.1E1,6E0,1.4E1,7E0,9E0,2E0,1.5E1,1E1,4E0,1E0,1E0,1E0,2E0,8E0,3E0,5E0,1E0,6E0,8E0,1E0,1E0,1.1E1,4E0,4E0,6E0,1E0,3E0,1E0,1E0,3E0,5E0,1E0,2E0,4E0,1E0,4E0,2E0],"tree_param":{"num_deleted":"0","num_feature":"6","num_nodes":"57","size_leaf_vector":"0"}},{"base_weights":[-1.9320814E-2,-5.106178E-2,6.0568288E-2,-7.800431E-2,-3.3310883E-2,4.697571E-2,2.6815426E-1,-1.0158333E-1,-6.450936E-2,-4.6285845E-2,-1.9634686E-2,1.3081512E-2,6.894891E-2,-5.0886214E-2,-5.962083E-3,-2.5773076E-2,1.4984196E-2,3.502206E-2,7.0120394E-3,5.269992E-2,1.0078808E-1,-4.35365E-2,-6.690422E-2,-1.3699037E-2,8.62439E-3,-1.9788135E-2,-8.470583E-2,-4.88171E-3,2.985537E-2,6.5724254E-3,4.5960665E-2,-8.84603E-3,1.8029086E-2,1.4315317E-2,6.884608E-2,1.2745017E-1,3.1642597E-2,-4.9739864E-2,-2.077201E-2,-2.568906E-2,1.6138755E-2,-8.723661E-3,1.4010966E-3,-2.1434247E-2,2.8066412E-3,2.9875636E-3,2.2545E-2,-8.378208E-3,2.7756631E-2,4.5573525E-2,8.765843E-2],"categories":[],"categories_nodes":[],"categories_segments":[],"categories_sizes":[],"default_left":[1,1,1,1,1,1,0,0,0,1,1,1,1,1,1,1,1,1,1,1,1,1,0,0,0,1,0,1,0,0,0,1,1,1,1,0,0,0,0,0,0,0,0,0,0,0,0,0,0,0,0],"id":9,"left_children":[1,3,5,7,9,11,-1,-1,-1,13,15,17,19,21,23,25,27,29,31,33,35,37,-1,-1,-1,39,-1,41,-1,-1,-1,43,45,47,49,-1,-1,-1,-1,-1,-1,-1,-1,-1,-1,-1,-1,-1,-1,-1,-1],"loss_changes":[3.200624E-1,4.044448E-2,8.89819E-2,4.5838505E-3,9.028282E-3,2.5164783E-2,0E0,0E0,0E0,4.8907325E-3,6.5488108E-3,1.7519377E-3,5.5529177E-3,3.041327E-5,5.6956534E-4,7.1415566E-3,1.622892E-3,6.315252E-4,2.4307042E-3,8.930668E-3,7.028524E-3,1.7911308E-3,0E0,0E0,0E0,5.5026347E-3,0E0,8.4637395E-5,0E0,0E0,0E0,9.402764E-4,4.7605508E-4,2.0627356E-3,8.2102045E-4,0E0,0E0,0E0,0E0,0E0,0E0,0E0,0E0,0E0,0E0,0E0,0E0,0E0,0E0,0E0,0E0],"parents":[2147483647,0,0,1,1,2,2,3,3,4,4,5,5,9,9,10,10,11,11,12,12,13,13,14,14,15,15,16,16,17,17,18,18,19,19,20,20,21,21,25,25,27,27,31,31,32,32,33,33,34,34],"right_children":[2,4,6,8,10,12,-1,-1,-1,14,16,18,20,22,24,26,28,30,32,34,36,38,-1,-1,-1,40,-1,42,-1,-1,-1,44,46,48,50,-1,-1,-1,-1,-1,-1,-1,-1,-1,-1,-1,-1,-1,-1,-1,-1],"split_conditions":[4.669556E-1,-5.800083E-1,2.6945302E0,-1.4692245E0,-3.8620818E-1,9.547719E-1,8.044628E-2,-3.0475E-2,-1.9352809E-2,1.071931E0,4.9989596E-1,5.17321E-1,1.7825149E0,-4.8660392E-1,9.017633E-3,4.008899E-1,-2.696076E-1,4.6689394E-1,6.264037E-1,7.405902E-1,1.5944629E0,-5.9474826E-1,-2.0071266E-2,-4.1097114E-3,2.587317E-3,3.073842E-1,-2.541175E-2,1.335947E0,8.956611E-3,1.9717277E-3,1.37882E-2,7.193525E-1,3.8030243E-1,1.253442E0,1.2431045E0,3.8235053E-2,9.492779E-3,-1.49219595E-2,-6.231603E-3,-7.706718E-3,4.8416266E-3,-2.6170984E-3,4.20329E-4,-6.4302743E-3,8.419924E-4,8.962691E-4,6.7635006E-3,-2.5134624E-3,8.32699E-3,1.36720585E-2,2.629753E-2],"split_indices":[5,5,1,1,4,3,0,0,0,1,1,5,5,4,5,1,4,1,1,4,1,4,0,0,0,1,0,1,0,0,0,5,4,1,5,0,0,0,0,0,0,0,0,0,0,0,0,0,0,0,0],"split_type":[0,0,0,0,0,0,0,0,0,0,0,0,0,0,0,0,0,0,0,0,0,0,0,0,0,0,0,0,0,0,0,0,0,0,0,0,0,0,0,0,0,0,0,0,0,0,0,0,0,0,0],"sum_hessian":[1.24E2,8.9E1,3.5E1,3.4E1,5.5E1,3.4E1,1E0,1E1,2.4E1,2.7E1,2.8E1,1.4E1,2E1,2.4E1,3E0,2.4E1,4E0,2E0,1.2E1,1.5E1,5E0,1.9E1,5E0,2E0,1E0,2.3E1,1E0,2E0,2E0,1E0,1E0,5E0,7E0,5E0,1E1,3E0,2E0,1.4E1,5E0,2E1,3E0,1E0,1E0,2E0,3E0,2E0,5E0,2E0,3E0,6E0,4E0],"tree_param":{"num_deleted":"0","num_feature":"6","num_nodes":"51","size_leaf_vector":"0"}},{"base_weights":[-1.2903001E-2,-3.7010934E-2,4.772525E-2,-6.5733515E-2,-2.7865432E-2,3.606419E-2,2.2793114E-1,-6.722454E-2,-1.7956525E-2,-3.4585387E-2,-1.1631654E-2,1.0345813E-2,5.271712E-2,-4.08367E-2,-2.155053E-2,-1.4778005E-2,1.3221234E-2,2.9768744E-2,5.0677657E-3,3.975135E-2,7.850631E-2,-2.6079018E-3,-4.3298353E-2,2.5669197E-2,-2.9057322E-2,-7.0186215E-3,-4.4060882E-2,1.544401E-3,1.828745E-2,5.5865645E-3,3.9066553E-2,-7.1235993E-3,1.3577819E-2,4.710493E-2,-7.815798E-3,9.87739E-2,2.5314093E-2,-9.501636E-3,5.589783E-3,3.5930544E-2,2.5732517E-3,-1.8388215E-2,-5.6467585E-2,-1.0806874E-2,2.6796713E-2,-1.07478695E-2,-7.199996E-2,-1.7147401E-2,2.1751523E-3,-4.070848E-3,1.6680608E-2,3.298688E-2,6.592004E-2,-1.6505957E-2,4.7822595E-3],"categories":[],"categories_nodes":[],"categories_segments":[],"categories_sizes":[],"default_left":[1,1,1,1,1,1,0,0,0,1,1,1,1,1,1,1,1,1,1,1,1,1,0,1,1,1,1,0,0,0,0,1,1,1,1,0,0,0,0,0,0,0,0,0,0,0,0,0,0,0,0,0,0,0,0],"id":10,"left_children":[1,3,5,7,9,11,-1,-1,-1,13,15,17,19,21,23,25,27,29,31,33,35,37,-1,39,41,43,45,-1,-1,-1,-1,47,49,51,53,-1,-1,-1,-1,-1,-1,-1,-1,-1,-1,-1,-1,-1,-1,-1,-1,-1,-1,-1,-1],"loss_changes":[1.8446907E-1,2.1809727E-2,6.742994E-2,2.888441E-4,7.234033E-3,1.4444619E-2,0E0,0E0,0E0,3.1127073E-3,1.915693E-3,1.3868661E-3,3.9011762E-3,2.898477E-3,7.1263136E-3,4.2350944E-3,1.492289E-4,4.5627588E-4,1.4454621E-3,5.964782E-3,3.9680973E-3,2.2265007E-4,0E0,6.185281E-4,3.6407504E-3,2.4673063E-3,2.949093E-3,0E0,0E0,0E0,0E0,5.9655134E-4,5.0598476E-4,1.5443619E-3,4.073731E-4,0E0,0E0,0E0,0E0,0E0,0E0,0E0,0E0,0E0,0E0,0E0,0E0,0E0,0E0,0E0,0E0,0E0,0E0,0E0,0E0],"parents":[2147483647,0,0,1,1,2,2,3,3,4,4,5,5,9,9,10,10,11,11,12,12,13,13,14,14,15,15,16,16,17,17,18,18,19,19,20,20,21,21,23,23,24,24,25,25,26,26,31,31,32,32,33,33,34,34],"right_children":[2,4,6,8,10,12,-1,-1,-1,14,16,18,20,22,24,26,28,30,32,34,36,38,-1,40,42,44,46,-1,-1,-1,-1,48,50,52,54,-1,-1,-1,-1,-1,-1,-1,-1,-1,-1,-1,-1,-1,-1,-1,-1,-1,-1,-1,-1],"split_conditions":[4.669556E-1,-9.0340865E-1,2.6945302E0,-9.1369045E-1,1.208572E-2,9.547719E-1,6.837934E-2,-2.0167362E-2,-5.386958E-3,-3.858602E-1,1.2448772E0,5.17321E-1,1.7825149E0,-1.0071962E0,-3.446347E-1,1.1332762E0,4.5589328E-1,4.6689394E-1,6.264037E-1,1.6024414E0,1.5944629E0,-1.0676999E0,-1.2989506E-2,3E0,-1.1923374E-1,1.097259E0,3.6788788E-1,4.6332032E-4,5.486235E-3,1.6759695E-3,1.1719966E-2,7.193525E-1,5.696662E-1,1.269943E0,1.4019511E0,2.963217E-2,7.5942283E-3,-2.8504909E-3,1.676935E-3,1.0779164E-2,7.7197555E-4,-5.516465E-3,-1.6940277E-2,-3.2420624E-3,8.039014E-3,-3.224361E-3,-2.159999E-2,-5.144221E-3,6.525457E-4,-1.2212545E-3,5.0041825E-3,9.896064E-3,1.9776013E-2,-4.951787E-3,1.4346779E-3],"split_indices":[5,5,1,1,3,3,0,0,0,4,4,5,5,1,4,4,1,1,1,5,1,1,0,0,3,4,1,0,0,0,0,5,5,1,1,0,0,0,0,0,0,0,0,0,0,0,0,0,0,0,0,0,0,0,0],"split_type":[0,0,0,0,0,0,0,0,0,0,0,0,0,0,0,0,0,0,0,0,0,0,0,0,0,0,0,0,0,0,0,0,0,0,0,0,0,0,0,0,0,0,0,0,0,0,0,0,0,0,0,0,0,0,0],"sum_hessian":[1.24E2,8.9E1,3.5E1,2E1,6.9E1,3.4E1,1E0,1.9E1,1E0,4.8E1,2.1E1,1.4E1,2E1,3.1E1,1.7E1,1.9E1,2E0,2E0,1.2E1,1.5E1,5E0,2E0,2.9E1,2E0,1.5E1,1.6E1,3E0,1E0,1E0,1E0,1E0,5E0,7E0,1.3E1,2E0,3E0,2E0,1E0,1E0,1E0,1E0,1.2E1,3E0,1.5E1,1E0,2E0,1E0,2E0,3E0,1E0,6E0,9E0,4E0,1E0,1E0],"tree_param":{"num_deleted":"0","num_feature":"6","num_nodes":"55","size_leaf_vector":"0"}},{"base_weights":[-8.39412E-3,-2.662655E-2,3.7420124E-2,-4.1291744E-2,-1.6985329E-2,2.741833E-2,1.9374144E-1,-5.554481E-2,-3.3368725E-2,-1.9345734E-2,5.9089973E-3,1.8313218E-2,6.1222605E-2,-2.2423903E-2,-4.0366523E-2,-2.0823399E-2,1.1238049E-2,-8.797851E-3,1.5461884E-2,1.4969808E-2,5.596435E-2,2.2636086E-2,8.450347E-2,-2.5326317E-2,4.7513247E-3,-4.579836E-2,-2.1429539E-2,-1.2710797E-2,-2.4736008E-2,1.3127476E-3,1.5544325E-2,1.87412E-2,2.8119683E-3,6.03681E-3,3.0445522E-2,4.0649176E-3,2.7471503E-2,1.02545656E-1,1.5188456E-2,6.3851476E-4,-2.710618E-2,-1.9764833E-2,1.6919538E-2,-5.5368923E-2,-1.8382415E-2,2.5303444E-2,2.2817096E-3,4.489249E-2,-2.4480522E-3],"categories":[],"categories_nodes":[],"categories_segments":[],"categories_sizes":[],"default_left":[1,1,1,1,1,1,0,0,1,1,1,1,1,1,1,1,1,0,1,1,0,1,1,0,0,0,1,1,1,0,0,0,0,1,1,0,0,0,0,0,0,0,0,0,0,0,0,0,0],"id":11,"left_children":[1,3,5,7,9,11,-1,-1,13,15,17,19,21,23,25,27,29,-1,31,33,-1,35,37,-1,-1,-1,39,41,43,-1,-1,-1,-1,45,47,-1,-1,-1,-1,-1,-1,-1,-1,-1,-1,-1,-1,-1,-1],"loss_changes":[1.0540949E-1,1.2023777E-2,5.09737E-2,2.0989962E-3,3.1405464E-3,9.651529E-3,0E0,0E0,1.0095667E-3,2.5388356E-3,9.789885E-4,2.8128363E-3,4.375465E-3,1.0668188E-3,4.5863912E-4,1.2409184E-3,1.078175E-4,0E0,1.1323264E-4,3.687053E-3,0E0,2.4752785E-4,3.4448653E-3,0E0,0E0,0E0,6.4366986E-4,4.0966542E-3,5.210314E-3,0E0,0E0,0E0,0E0,1.3168796E-3,4.8620235E-3,0E0,0E0,0E0,0E0,0E0,0E0,0E0,0E0,0E0,0E0,0E0,0E0,0E0,0E0],"parents":[2147483647,0,0,1,1,2,2,3,3,4,4,5,5,8,8,9,9,10,10,11,11,12,12,13,13,14,14,15,15,16,16,18,18,19,19,21,21,22,22,26,26,27,27,28,28,33,33,34,34],"right_children":[2,4,6,8,10,12,-1,-1,14,16,18,20,22,24,26,28,30,-1,32,34,-1,36,38,-1,-1,-1,40,42,44,-1,-1,-1,-1,46,48,-1,-1,-1,-1,-1,-1,-1,-1,-1,-1,-1,-1,-1,-1],"split_conditions":[4.669556E-1,-5.800083E-1,2.6945302E0,-1.4692245E0,1.1104333E0,1.4129518E0,5.8122434E-2,-1.6663443E-2,-8.562411E-1,1.2448772E0,9.017633E-3,1.8611377E0,8.2347035E-1,-8.6773646E-1,-2.4415779E-1,-3.3790052E-1,4.5589328E-1,-2.6393556E-3,3.744141E-1,1.5791932E0,1.6789306E-2,1.627465E0,1.5944629E0,-7.5978953E-3,1.4253975E-3,-1.3739509E-2,-8.4768647E-1,-4.284892E-1,-1.8125491E-1,3.938243E-4,4.663298E-3,5.62236E-3,8.4359053E-4,5.17321E-1,1.2643106E0,1.2194753E-3,8.241451E-3,3.0763699E-2,4.5565367E-3,1.9155444E-4,-8.131854E-3,-5.92945E-3,5.0758617E-3,-1.6610678E-2,-5.5147246E-3,7.5910334E-3,6.845129E-4,1.3467748E-2,-7.3441566E-4],"split_indices":[5,5,1,1,1,1,0,0,4,4,5,5,4,4,4,5,1,0,5,4,0,1,1,0,0,0,1,4,5,0,0,0,0,5,3,0,0,0,0,0,0,0,0,0,0,0,0,0,0],"split_type":[0,0,0,0,0,0,0,0,0,0,0,0,0,0,0,0,0,0,0,0,0,0,0,0,0,0,0,0,0,0,0,0,0,0,0,0,0,0,0,0,0,0,0,0,0,0,0,0,0],"sum_hessian":[1.24E2,8.9E1,3.5E1,3.4E1,5.5E1,3.4E1,1E0,1E1,2.4E1,5E1,5E0,2.8E1,6E0,1.1E1,1.3E1,4.8E1,2E0,2E0,3E0,2.7E1,1E0,3E0,3E0,1E1,1E0,9E0,4E0,1.7E1,3.1E1,1E0,1E0,2E0,1E0,1.8E1,9E0,1E0,2E0,2E0,1E0,1E0,3E0,1.4E1,3E0,4E0,2.7E1,2E0,1.6E1,6E0,3E0],"tree_param":{"num_deleted":"0","num_feature":"6","num_nodes":"49","size_leaf_vector":"0"}},{"base_weights":[-5.2191517E-3,-1.6618438E-2,4.104273E-2,-2.841577E-2,-7.7387146E-3,2.902949E-2,1.6468024E-1,-2.0811373E-2,-3.6925983E-2,-1.136941E-2,9.1379015E-3,1.7598633E-2,4.6125516E-2,-2.3430474E-2,-1.4539677E-2,-3.8100272E-2,-7.894397E-3,-1.4293756E-2,3.2158801E-3,1.7134914E-2,-3.8854957E-3,2.5418723E-2,-4.689312E-3,2.2819161E-2,6.020677E-2,3.240506E-3,-1.9389786E-2,-1.1215835E-2,-3.996057E-2,-4.6934467E-4,1.6348839E-2,3.7759095E-3,2.6210189E-2,-1.3186078E-2,6.7102513E-3,1.07424725E-2,5.208561E-2,7.049918E-3,-9.386599E-3,9.68194E-3,2.8349996E-2,8.203658E-2,1.8308043E-2,8.2212687E-4,4.038632E-3,-2.1399047E-2,-2.6624799E-3,-1.2899212E-2,2.5534555E-2,-3.5237893E-3,-5.0931565E-2,-4.266618E-3,2.6623427E-3,1.3792714E-3,5.482912E-3,-1.5976638E-2,-3.8024783E-3,2.6995337E-2,-7.6588867E-3,9.689629E-3,6.298772E-2,-2.9339392E-3,-1.4372289E-2],"categories":[],"categories_nodes":[],"categories_segments":[],"categories_sizes":[],"default_left":[1,1,1,1,1,1,0,1,1,1,1,1,1,0,1,0,0,1,1,1,1,1,1,1,1,1,1,1,1,1,0,1,0,1,0,1,1,0,1,0,0,0,0,0,0,0,0,0,0,0,0,0,0,0,0,0,0,0,0,0,0,0,0],"id":12,"left_children":[1,3,5,7,9,11,-1,13,15,17,19,21,23,-1,25,-1,-1,27,29,31,33,35,37,39,41,43,45,47,49,51,-1,53,-1,55,-1,57,59,-1,61,-1,-1,-1,-1,-1,-1,-1,-1,-1,-1,-1,-1,-1,-1,-1,-1,-1,-1,-1,-1,-1,-1,-1,-1],"loss_changes":[6.660112E-2,1.0360558E-2,3.2351594E-2,2.0142682E-3,3.7190495E-3,3.8783886E-3,0E0,6.9984235E-5,3.4695864E-4,2.1359366E-3,1.2122085E-3,2.9078969E-3,1.5797764E-3,0E0,9.25191E-4,0E0,0E0,2.7908273E-3,4.4325442E-4,7.4968906E-4,5.812149E-4,4.13691E-3,3.4188747E-4,8.881581E-5,3.0712746E-3,2.4702458E-6,2.119015E-4,2.6802365E-3,1.4195191E-3,1.0649418E-4,0E0,8.801846E-6,0E0,1.7805723E-5,0E0,2.8984277E-3,1.238496E-3,0E0,8.6516404E-5,0E0,0E0,0E0,0E0,0E0,0E0,0E0,0E0,0E0,0E0,0E0,0E0,0E0,0E0,0E0,0E0,0E0,0E0,0E0,0E0,0E0,0E0,0E0,0E0],"parents":[2147483647,0,0,1,1,2,2,3,3,4,4,5,5,7,7,8,8,9,9,10,10,11,11,12,12,14,14,17,17,18,18,19,19,20,20,21,21,22,22,23,23,24,24,25,25,26,26,27,27,28,28,29,29,31,31,33,33,35,35,36,36,38,38],"right_children":[2,4,6,8,10,12,-1,14,16,18,20,22,24,-1,26,-1,-1,28,30,32,34,36,38,40,42,44,46,48,50,52,-1,54,-1,56,-1,58,60,-1,62,-1,-1,-1,-1,-1,-1,-1,-1,-1,-1,-1,-1,-1,-1,-1,-1,-1,-1,-1,-1,-1,-1,-1,-1],"split_conditions":[1.029614E0,-4.4919032E-1,2.6945302E0,3E0,1.2448772E0,1.269943E0,4.9404074E-2,-6.405728E-1,-6.001713E-1,8.9041984E-1,8.234525E-1,1.1743889E0,8.2347035E-1,-7.0291427E-3,-7.1062255E-1,-1.1430082E-2,-2.368319E-3,5.889534E-1,1.7594731E0,4.6689394E-1,6.594057E-1,1.323947E0,1.1142312E0,2.5E0,1.42377E0,1.5E0,-5.800166E-1,5.373636E-1,-7.2591805E-1,9.017633E-3,4.904652E-3,1.4488238E0,7.863057E-3,6.31904E-1,2.0130754E-3,1.1539526E0,8.926617E-1,2.1149756E-3,1.5668347E0,2.904582E-3,8.504999E-3,2.4610974E-2,5.4924134E-3,2.4663808E-4,1.2115897E-3,-6.4197145E-3,-7.98744E-4,-3.8697636E-3,7.660367E-3,-1.0571368E-3,-1.527947E-2,-1.2799854E-3,7.987029E-4,4.1378144E-4,1.6448736E-3,-4.7929916E-3,-1.1407435E-3,8.098601E-3,-2.2976662E-3,2.9068887E-3,1.8896317E-2,-8.801818E-4,-4.311687E-3],"split_indices":[5,5,1,0,4,1,0,5,1,1,3,2,4,0,2,0,0,3,1,1,1,5,3,0,3,0,4,3,4,5,0,4,0,1,0,5,2,0,5,0,0,0,0,0,0,0,0,0,0,0,0,0,0,0,0,0,0,0,0,0,0,0,0],"split_type":[0,0,0,0,0,0,0,0,0,0,0,0,0,0,0,0,0,0,0,0,0,0,0,0,0,0,0,0,0,0,0,0,0,0,0,0,0,0,0,0,0,0,0,0,0,0,0,0,0,0,0,0,0,0,0,0,0,0,0,0,0,0,0],"sum_hessian":[1.24E2,1E2,2.4E1,4.2E1,5.8E1,2.3E1,1E0,2.4E1,1.8E1,4.8E1,1E1,1.5E1,8E0,1.5E1,9E0,1.7E1,1E0,4E1,8E0,6E0,4E0,1.1E1,4E0,4E0,4E0,2E0,7E0,3.7E1,3E0,7E0,1E0,3E0,3E0,2E0,2E0,8E0,3E0,1E0,3E0,2E0,2E0,2E0,2E0,1E0,1E0,6E0,1E0,3.6E1,1E0,1E0,2E0,3E0,4E0,2E0,1E0,1E0,1E0,4E0,4E0,1E0,2E0,2E0,1E0],"tree_param":{"num_deleted":"0","num_feature":"6","num_nodes":"63","size_leaf_vector":"0"}},{"base_weights":[-2.9595331E-3,-5.241113E-3,1.3997817E-1,-1.4542128E-2,1.619124E-2,-1.9655308E-2,-6.7524766E-3,1.1011181E-2,4.1983027E-2,-3.1990275E-2,-1.6685534E-2,-4.0423837E-3,-5.0802868E-2,2.2227378E-3,1.915191E-2,5.308482E-2,1.31862955E-2,-1.3354794E-2,-3.2383047E-2,2.4544954E-2,-6.518736E-3,-1.6865134E-3,2.1028081E-2,3.912106E-2,1.2078443E-2,-1.595722E-2,4.4983625E-4,2.9937923E-2,6.8795085E-3,-2.1700218E-2,7.849559E-5,8.23617E-3,-2.9835743E-3,-6.50467E-3,1.7737897E-2],"categories":[],"categories_nodes":[],"categories_segments":[],"categories_sizes":[],"default_left":[1,1,0,1,1,1,1,1,1,0,1,1,0,1,1,0,0,1,0,1,1,1,0,0,1,0,0,0,0,0,0,0,0,0,0],"id":13,"left_children":[1,3,-1,5,7,9,11,13,15,-1,17,19,-1,21,23,-1,-1,25,-1,27,29,31,-1,-1,33,-1,-1,-1,-1,-1,-1,-1,-1,-1,-1],"loss_changes":[4.149911E-2,2.4953943E-2,0E0,3.332479E-3,4.6146316E-3,1.3710912E-3,4.0923394E-3,2.3183925E-3,1.2181802E-3,0E0,1.8680412E-3,2.6377335E-3,0E0,1.285216E-3,1.9287476E-3,0E0,0E0,1.3723476E-3,0E0,7.9849386E-5,3.3068433E-3,2.1762811E-4,0E0,0E0,1.5877634E-3,0E0,0E0,0E0,0E0,0E0,0E0,0E0,0E0,0E0,0E0],"parents":[2147483647,0,0,1,1,3,3,4,4,5,5,6,6,7,7,8,8,10,10,11,11,13,13,14,14,17,17,19,19,20,20,21,21,24,24],"right_children":[2,4,-1,6,8,10,12,14,16,-1,18,20,-1,22,24,-1,-1,26,-1,28,30,32,-1,-1,34,-1,-1,-1,-1,-1,-1,-1,-1,-1,-1],"split_conditions":[2.6945302E0,7.0151293E-1,4.1993454E-2,-3.858602E-1,1.7825149E0,-1.5627302E0,6.264732E-1,7.405902E-1,1.5944629E0,-9.597083E-3,-4.9446854E-1,-3.5962158E-1,-1.5240861E-2,1.7594731E0,1.4110203E0,1.5925447E-2,3.955889E-3,-5.9474826E-1,-9.7149145E-3,3E0,-1.7621538E-1,7.484127E-1,6.3084248E-3,1.1736319E-2,1.5373646E0,-4.787166E-3,1.3495088E-4,8.981377E-3,2.0638527E-3,-6.510066E-3,2.3548679E-5,2.470851E-3,-8.950723E-4,-1.951401E-3,5.3213695E-3],"split_indices":[1,3,0,4,5,1,3,4,1,0,4,4,0,1,4,0,0,4,0,0,5,3,0,0,4,0,0,0,0,0,0,0,0,0,0],"split_type":[0,0,0,0,0,0,0,0,0,0,0,0,0,0,0,0,0,0,0,0,0,0,0,0,0,0,0,0,0,0,0,0,0,0,0],"sum_hessian":[1.24E2,1.23E2,1E0,8.6E1,3.7E1,5.1E1,3.5E1,3.2E1,5E0,8E0,4.3E1,3.4E1,1E0,1.6E1,1.6E1,3E0,2E0,3.7E1,6E0,2E0,3.2E1,1.4E1,2E0,3E0,1.3E1,3.1E1,6E0,1E0,1E0,9E0,2.3E1,1E0,1.3E1,3E0,1E1],"tree_param":{"num_deleted":"0","num_feature":"6","num_nodes":"35","size_leaf_vector":"0"}},{"base_weights":[-1.6699234E-3,-3.6024468E-3,1.1898148E-1,-8.781685E-3,1.8343614E-2,-1.1996257E-2,2.7602273E-5,1.1416114E-2,3.3536673E-2,-2.2555297E-2,-9.993981E-3,4.333726E-3,-3.4728483E-3,1.5423843E-2,-6.4668953E-3,1.2289673E-2,4.6399504E-2,-7.845163E-3,-1.9634178E-2,-3.1348811E-3,1.3569581E-2,-4.3182436E-2,2.0532866E-3,7.3915473E-3,3.5664767E-2,-1.4719169E-2,9.144962E-3,2.4504066E-3,1.4752626E-2,5.6408644E-2,8.186042E-3,-1.1293592E-2,8.457284E-3,-2.538332E-2,-7.658544E-3,-5.2465885E-3,2.1334935E-3,4.1369162E-3,2.1623274E-2,7.633845E-3,-1.5003771E-3,2.5800846E-3,3.0158818E-2,4.1638732E-2,8.871436E-3,-1.8413842E-2,-3.6649108E-3],"categories":[],"categories_nodes":[],"categories_segments":[],"categories_sizes":[],"default_left":[1,1,0,1,1,1,1,1,1,0,1,1,1,1,1,1,1,1,1,1,1,0,1,1,1,1,0,0,0,0,0,0,0,0,0,0,0,0,0,0,0,0,0,0,0,0,0],"id":14,"left_children":[1,3,-1,5,7,9,11,13,15,-1,17,19,21,23,25,27,29,31,33,35,37,-1,39,41,43,45,-1,-1,-1,-1,-1,-1,-1,-1,-1,-1,-1,-1,-1,-1,-1,-1,-1,-1,-1,-1,-1],"loss_changes":[2.957383E-2,1.4255408E-2,0E0,2.860458E-3,2.14314E-3,1.3391003E-3,4.371048E-4,1.3898087E-3,1.3428414E-3,0E0,1.1717281E-3,9.3926565E-4,3.5997147E-3,2.1750985E-3,6.4993947E-4,6.078469E-5,1.068172E-3,3.131276E-3,5.629468E-4,1.00195684E-4,3.6635296E-4,0E0,3.0892505E-4,1.2367142E-3,2.7085422E-4,5.5040524E-5,0E0,0E0,0E0,0E0,0E0,0E0,0E0,0E0,0E0,0E0,0E0,0E0,0E0,0E0,0E0,0E0,0E0,0E0,0E0,0E0,0E0],"parents":[2147483647,0,0,1,1,3,3,4,4,5,5,6,6,7,7,8,8,10,10,11,11,12,12,13,13,14,14,15,15,16,16,17,17,18,18,19,19,20,20,22,22,23,23,24,24,25,25],"right_children":[2,4,-1,6,8,10,12,14,16,-1,18,20,22,24,26,28,30,32,34,36,38,-1,40,42,44,46,-1,-1,-1,-1,-1,-1,-1,-1,-1,-1,-1,-1,-1,-1,-1,-1,-1,-1,-1,-1,-1],"split_conditions":[2.6945302E0,1.029614E0,3.5694446E-2,1.0937208E-1,1.4129518E0,-1.4692245E0,3.841932E-1,1.2643106E0,8.2347035E-1,-6.7665894E-3,-1.271424E-1,-3.271423E-1,4.2762923E-1,1.6768514E0,1.2589424E0,1.627465E0,1.5944629E0,-1.8125491E-1,1.488948E-1,2.7585931E-2,3.5688722E-1,-1.29547315E-2,5.17321E-1,1.8611377E0,9.454232E-1,1.0939323E0,2.7434886E-3,7.35122E-4,4.4257883E-3,1.6922593E-2,2.4558129E-3,-3.3880777E-3,2.5371853E-3,-7.6149963E-3,-2.2975632E-3,-1.5739766E-3,6.4004806E-4,1.2410749E-3,6.4869826E-3,2.2901536E-3,-4.5011315E-4,7.740254E-4,9.047646E-3,1.249162E-2,2.661431E-3,-5.524153E-3,-1.0994733E-3],"split_indices":[1,5,0,1,1,1,5,3,4,0,1,4,5,4,1,1,1,5,5,5,1,0,5,5,1,1,0,0,0,0,0,0,0,0,0,0,0,0,0,0,0,0,0,0,0,0,0],"split_type":[0,0,0,0,0,0,0,0,0,0,0,0,0,0,0,0,0,0,0,0,0,0,0,0,0,0,0,0,0,0,0,0,0,0,0,0,0,0,0,0,0,0,0,0,0,0,0],"sum_hessian":[1.24E2,1.23E2,1E0,1E2,2.3E1,7.3E1,2.7E1,1.7E1,6E0,1E1,6.3E1,1.2E1,1.5E1,1.4E1,3E0,3E0,3E0,5.3E1,1E1,7E0,5E0,1E0,1.4E1,1.1E1,3E0,2E0,1E0,1E0,2E0,2E0,1E0,4.4E1,9E0,6E0,4E0,5E0,2E0,3E0,2E0,5E0,9E0,1E1,1E0,2E0,1E0,1E0,1E0],"tree_param":{"num_deleted":"0","num_feature":"6","num_nodes":"47","size_leaf_vector":"0"}},{"base_weights":[-6.9311657E-4,-2.3299046E-3,1.011343E-1,-6.3635143E-3,1.474195E-2,-3.5166119E-3,-1.3660203E-2,8.072052E-3,2.4961552E-2,-6.8590967E-3,-1.6954448E-4,-1.6108477E-2,-6.701794E-3,1.4110133E-2,-8.033752E-3,1.1962104E-2,3.296869E-2,-4.4630184E-3,-2.1301394E-2,2.7141273E-2,-1.6412226E-3,-1.2820671E-2,-2.6054531E-2,9.164229E-3,-1.6162178E-2,1.8238647E-2,-1.5651762E-2,-2.3572445E-3,-8.863568E-3,5.005002E-3,1.4931838E-2,4.5126915E-2,9.820898E-3,-7.13631E-3,2.399183E-3,-2.8633663E-2,-6.8686604E-3,-9.699298E-3,9.1615337E-4,-1.4712491E-2,-2.994135E-3,-2.1042444E-2,-4.267762E-3,4.9058115E-3,3.325689E-2,-3.7141244E-3,-1.215595E-2],"categories":[],"categories_nodes":[],"categories_segments":[],"categories_sizes":[],"default_left":[1,1,0,1,1,1,1,1,1,1,1,1,1,1,1,1,1,1,1,0,1,1,0,0,1,1,0,0,1,0,0,0,0,0,0,0,0,0,0,0,0,0,0,0,0,0,0],"id":15,"left_children":[1,3,-1,5,7,9,11,13,15,17,19,21,23,25,27,29,31,33,35,-1,37,39,-1,-1,41,43,-1,-1,45,-1,-1,-1,-1,-1,-1,-1,-1,-1,-1,-1,-1,-1,-1,-1,-1,-1,-1],"loss_changes":[2.106937E-2,8.632599E-3,0E0,2.050032E-3,1.4344379E-3,8.2671375E-4,3.6905473E-4,1.6693276E-3,5.424204E-4,1.185312E-3,1.5718687E-3,3.199773E-4,1.4990018E-3,1.7599361E-3,2.6586931E-6,2.8569775E-5,9.6399384E-4,6.224952E-4,3.324484E-4,0E0,7.713646E-4,2.719795E-4,0E0,0E0,2.5848346E-4,2.0394411E-3,0E0,0E0,2.2667024E-5,0E0,0E0,0E0,0E0,0E0,0E0,0E0,0E0,0E0,0E0,0E0,0E0,0E0,0E0,0E0,0E0,0E0,0E0],"parents":[2147483647,0,0,1,1,3,3,4,4,5,5,6,6,7,7,8,8,9,9,10,10,11,11,12,12,13,13,14,14,15,15,16,16,17,17,18,18,20,20,21,21,24,24,25,25,28,28],"right_children":[2,4,-1,6,8,10,12,14,16,18,20,22,24,26,28,30,32,34,36,-1,38,40,-1,-1,42,44,-1,-1,46,-1,-1,-1,-1,-1,-1,-1,-1,-1,-1,-1,-1,-1,-1,-1,-1,-1,-1],"split_conditions":[2.6945302E0,1.029614E0,3.0340292E-2,3.5E0,1.269943E0,-3.8502502E-1,-4.0971395E-1,1.1743889E0,8.2347035E-1,-4.1376916E-1,-3.716621E-1,-6.0916567E-1,-4.1352832E-1,1.2643106E0,1.1142312E0,2.5E0,1.42377E0,-2.8480542E-1,2.5E0,8.142382E-3,-1.7621538E-1,-9.1369045E-1,-7.816359E-3,2.749269E-3,-6.452428E-2,9.782218E-1,-4.695529E-3,-7.0717337E-4,1.5668347E0,1.5015007E-3,4.4795517E-3,1.3538075E-2,2.9462695E-3,-2.1408931E-3,7.1975496E-4,-8.590099E-3,-2.0605982E-3,-2.9097896E-3,2.74846E-4,-4.4137477E-3,-8.9824054E-4,-6.3127335E-3,-1.2803286E-3,1.4717436E-3,9.977067E-3,-1.1142374E-3,-3.6467852E-3],"split_indices":[1,5,0,0,1,4,5,2,4,4,4,5,2,3,3,0,3,5,0,0,5,1,0,0,4,3,0,0,5,0,0,0,0,0,0,0,0,0,0,0,0,0,0,0,0,0,0],"split_type":[0,0,0,0,0,0,0,0,0,0,0,0,0,0,0,0,0,0,0,0,0,0,0,0,0,0,0,0,0,0,0,0,0,0,0,0,0,0,0,0,0,0,0,0,0,0,0],"sum_hessian":[1.24E2,1.23E2,1E0,1E2,2.3E1,7.3E1,2.7E1,1.5E1,8E0,3.6E1,3.7E1,1.9E1,8E0,1.1E1,4E0,4E0,4E0,3.2E1,4E0,1E0,3.6E1,1.6E1,3E0,3E0,5E0,1E1,1E0,1E0,3E0,2E0,2E0,2E0,2E0,2.3E1,9E0,2E0,2E0,8E0,2.8E1,1.3E1,3E0,3E0,2E0,6E0,4E0,2E0,1E0],"tree_param":{"num_deleted":"0","num_feature":"6","num_nodes":"47","size_leaf_vector":"0"}},{"base_weights":[-2.4875507E-4,-1.6372806E-3,8.59642E-2,-5.1077744E-3,9.907709E-3,-2.96571E-3,-1.0204013E-2,5.123835E-3,1.9969225E-2,-4.149971E-3,1.5742963E-3,-1.1932364E-2,-5.229455E-3,8.305113E-3,-6.7172768E-3,9.569669E-3,2.6374936E-2,-2.8622858E-3,-3.6842495E-2,1.5777925E-2,-1.8245641E-3,-9.286958E-3,-2.019225E-2,7.102281E-3,-1.2579036E-2,2.9286381E-3,2.5046498E-2,-2.9712915E-3,-8.22417E-3,4.003962E-3,1.1945486E-2,3.61015E-2,7.856727E-3,-5.7207616E-3,1.5555321E-3,-7.002803E-3,2.2871858E-3,-1.0614033E-2,-2.3204535E-3,-1.6307898E-2,-3.4142088E-3,5.2006864E-3,-1.3303995E-2,5.8778524E-3,2.9476762E-2,-2.0036697E-3,-1.0332584E-2],"categories":[],"categories_nodes":[],"categories_segments":[],"categories_sizes":[],"default_left":[1,1,0,1,1,1,1,1,1,1,1,1,1,1,1,1,1,1,0,0,1,1,0,0,1,1,1,0,1,0,0,0,0,0,0,0,0,0,0,0,0,0,0,0,0,0,0],"id":16,"left_children":[1,3,-1,5,7,9,11,13,15,17,19,21,23,25,27,29,31,33,-1,-1,35,37,-1,-1,39,41,43,-1,45,-1,-1,-1,-1,-1,-1,-1,-1,-1,-1,-1,-1,-1,-1,-1,-1,-1,-1],"loss_changes":[1.5104359E-2,5.0188913E-3,0E0,1.0177193E-3,1.2935386E-3,3.775155E-4,1.7833826E-4,8.4685493E-4,3.4714933E-4,2.2099193E-3,7.529301E-4,2.494906E-4,9.050376E-4,1.4568118E-3,3.787587E-6,1.8286228E-5,6.1695324E-4,6.90823E-4,0E0,0E0,2.928078E-4,1.3253698E-4,0E0,0E0,1.4936773E-4,5.855285E-4,1.6642851E-4,0E0,1.8643099E-5,0E0,0E0,0E0,0E0,0E0,0E0,0E0,0E0,0E0,0E0,0E0,0E0,0E0,0E0,0E0,0E0,0E0,0E0],"parents":[2147483647,0,0,1,1,3,3,4,4,5,5,6,6,7,7,8,8,9,9,10,10,11,11,12,12,13,13,14,14,15,15,16,16,17,17,20,20,21,21,24,24,25,25,26,26,28,28],"right_children":[2,4,-1,6,8,10,12,14,16,18,20,22,24,26,28,30,32,34,-1,-1,36,38,-1,-1,40,42,44,-1,46,-1,-1,-1,-1,-1,-1,-1,-1,-1,-1,-1,-1,-1,-1,-1,-1,-1,-1],"split_conditions":[2.6945302E0,7.193525E-1,2.5789263E-2,3.5E0,1.269943E0,4.723943E-1,-4.0971395E-1,1.1743889E0,8.2347035E-1,4.173909E-1,5.98902E-1,-6.0916567E-1,-4.1352832E-1,1.323947E0,1.5668347E0,2.5E0,1.42377E0,-2.040227E-1,-1.1052749E-2,4.7333776E-3,8.9041984E-1,-9.1369045E-1,-6.0576755E-3,2.1306844E-3,-6.452428E-2,1.2643106E0,8.926617E-1,-8.913875E-4,1.1142312E0,1.2011887E-3,3.583646E-3,1.0830451E-2,2.3570182E-3,-1.7162286E-3,4.6665964E-4,-2.100841E-3,6.8615575E-4,-3.18421E-3,-6.961361E-4,-4.8923697E-3,-1.0242626E-3,1.560206E-3,-3.9911987E-3,1.7633558E-3,8.843029E-3,-6.0110097E-4,-3.0997754E-3],"split_indices":[1,5,0,0,1,1,5,2,4,1,1,5,2,5,5,0,3,4,0,0,1,1,0,0,4,3,2,0,3,0,0,0,0,0,0,0,0,0,0,0,0,0,0,0,0,0,0],"split_type":[0,0,0,0,0,0,0,0,0,0,0,0,0,0,0,0,0,0,0,0,0,0,0,0,0,0,0,0,0,0,0,0,0,0,0,0,0,0,0,0,0,0,0,0,0,0,0],"sum_hessian":[1.24E2,1.23E2,1E0,9.5E1,2.8E1,6.8E1,2.7E1,2E1,8E0,5.4E1,1.4E1,1.9E1,8E0,1.6E1,4E0,4E0,4E0,5.3E1,1E0,2E0,1.2E1,1.6E1,3E0,3E0,5E0,1.3E1,3E0,2E0,2E0,2E0,2E0,2E0,2E0,3.2E1,2.1E1,5E0,7E0,1.3E1,3E0,3E0,2E0,1.2E1,1E0,1E0,2E0,1E0,1E0],"tree_param":{"num_deleted":"0","num_feature":"6","num_nodes":"47","size_leaf_vector":"0"}},{"base_weights":[2.2975117E-5,-1.1553811E-3,7.306957E-2,-3.5430784E-3,8.940986E-3,-1.470325E-2,-2.9312852E-3,5.362393E-3,1.8783033E-2,-3.9053604E-3,1.8823243E-3,1.7779022E-2,1.9230861E-3,3.3447504E-2,9.160638E-3,-3.0209478E-3,-1.6744241E-2,8.505229E-3,-1.4438586E-4,7.702708E-4,2.3191849E-2,-6.104844E-3,7.3503284E-3,-1.7031431E-3,1.2302369E-2,-3.8269816E-3,9.351337E-3,-3.1316116E-2,-5.272243E-3,6.988297E-4,1.5962213E-2,-4.5636445E-3,2.8178294E-3,1.5263954E-3,-9.462619E-3,-6.3072145E-3,9.568635E-3,1.622492E-2,5.5865445E-3],"categories":[],"categories_nodes":[],"categories_segments":[],"categories_sizes":[],"default_left":[1,1,0,1,1,0,1,1,1,1,1,1,1,0,1,1,1,1,1,0,0,1,1,0,1,0,0,0,0,0,0,0,0,0,0,0,0,0,0],"id":17,"left_children":[1,3,-1,5,7,-1,9,11,13,15,17,19,21,-1,23,25,27,29,31,-1,-1,33,35,-1,37,-1,-1,-1,-1,-1,-1,-1,-1,-1,-1,-1,-1,-1,-1],"loss_changes":[1.0843787E-2,3.020955E-3,0E0,6.4650003E-4,7.4457435E-4,0E0,4.6216644E-4,7.7719684E-4,5.4024346E-4,8.6916075E-4,2.2941406E-4,3.5039766E-4,7.41985E-4,0E0,1.916081E-4,8.036685E-4,6.7073654E-4,2.2169392E-4,1.961307E-4,0E0,0E0,1.938116E-4,3.6331755E-4,0E0,1.4731369E-5,0E0,0E0,0E0,0E0,0E0,0E0,0E0,0E0,0E0,0E0,0E0,0E0,0E0,0E0],"parents":[2147483647,0,0,1,1,3,3,4,4,6,6,7,7,8,8,9,9,10,10,11,11,12,12,14,14,15,15,16,16,17,17,18,18,21,21,22,22,24,24],"right_children":[2,4,-1,6,8,-1,10,12,14,16,18,20,22,-1,24,26,28,30,32,-1,-1,34,36,-1,38,-1,-1,-1,-1,-1,-1,-1,-1,-1,-1,-1,-1,-1,-1],"split_conditions":[2.6945302E0,9.969817E-1,2.1920873E-2,-1.6782373E0,1.7825149E0,-4.410975E-3,4.5591664E-1,9.454232E-1,1.8380699E0,3.841932E-1,5.17321E-1,7.8041315E-1,1.269943E0,1.0034252E-2,1.8611377E0,9.7787446E-1,4.2762923E-1,4.6689394E-1,6.264037E-1,2.3108126E-4,6.9575547E-3,1.1539526E0,9.017633E-3,-5.1094295E-4,1.3964508E0,-1.1480945E-3,2.8054013E-3,-9.394836E-3,-1.581673E-3,2.0964892E-4,4.788664E-3,-1.3690934E-3,8.4534887E-4,4.5791865E-4,-2.8387858E-3,-1.8921645E-3,2.8705907E-3,4.8674764E-3,1.6759634E-3],"split_indices":[1,3,0,1,5,0,5,1,5,5,5,1,1,0,5,4,5,1,1,0,0,5,5,0,1,0,0,0,0,0,0,0,0,0,0,0,0,0,0],"split_type":[0,0,0,0,0,0,0,0,0,0,0,0,0,0,0,0,0,0,0,0,0,0,0,0,0,0,0,0,0,0,0,0,0,0,0,0,0,0,0],"sum_hessian":[1.24E2,1.23E2,1E0,1E2,2.3E1,4E0,9.6E1,1.8E1,5E0,8E1,1.6E1,3E0,1.5E1,1E0,4E0,7.6E1,4E0,3E0,1.3E1,1E0,2E0,6E0,9E0,1E0,3E0,7.2E1,4E0,1E0,3E0,2E0,1E0,5E0,8E0,2E0,4E0,1E0,8E0,1E0,2E0],"tree_param":{"num_deleted":"0","num_feature":"6","num_nodes":"39","size_leaf_vector":"0"}},{"base_weights":[2.922332E-4,-7.0717E-4,6.2109113E-2,-2.6167552E-3,7.3584667E-3,-1.234553E-3,-6.1762626E-3,4.2972504E-3,1.5825907E-2,2.1091488E-3,-3.5622849E-3,-3.2136105E-3,-9.347507E-3,9.544477E-3,4.409949E-4,2.8430343E-2,7.6189516E-3,-1.6648861E-3,1.8111775E-2,-2.3598831E-2,-9.686594E-4,-5.8919913E-3,1.0356705E-2,-1.6594484E-2,-5.5139647E-3,3.4492214E-3,1.8553495E-2,-5.7827407E-3,7.6285205E-3,-1.4476776E-3,1.0247529E-2,1.999706E-3,-4.4855676E-3,2.5040254E-2,2.8365452E-3,-4.1882675E-2,2.5512874E-3,2.076495E-2,-3.960309E-3,-4.507762E-3,-1.1943489E-2,4.203975E-3,-7.060844E-3,-2.9399E-4,5.3943247E-3,-8.435893E-3,5.667607E-4,9.435749E-3,-7.0381165E-4,1.37912035E-2,4.469236E-3],"categories":[],"categories_nodes":[],"categories_segments":[],"categories_sizes":[],"default_left":[1,1,0,1,1,1,1,1,1,1,1,1,1,1,1,0,1,1,1,1,1,1,0,0,1,1,0,1,1,0,1,0,0,0,0,0,0,0,0,0,0,0,0,0,0,0,0,0,0,0,0],"id":18,"left_children":[1,3,-1,5,7,9,11,13,15,17,19,21,23,25,27,-1,29,31,33,35,37,39,-1,-1,41,43,-1,45,47,-1,49,-1,-1,-1,-1,-1,-1,-1,-1,-1,-1,-1,-1,-1,-1,-1,-1,-1,-1,-1,-1],"loss_changes":[7.76642E-3,1.9291058E-3,0E0,4.8929086E-4,5.5408815E-4,5.8347324E-4,2.330289E-4,3.8024923E-4,4.0405488E-4,1.9023828E-3,2.263702E-3,6.425652E-4,2.6965933E-4,3.7530297E-4,5.809128E-4,0E0,1.3399677E-4,2.7772263E-4,5.639768E-4,2.4974777E-3,2.6830097E-3,6.343488E-5,0E0,0E0,1.8000841E-4,4.527148E-5,0E0,1.227045E-4,9.699157E-5,0E0,2.0269421E-5,0E0,0E0,0E0,0E0,0E0,0E0,0E0,0E0,0E0,0E0,0E0,0E0,0E0,0E0,0E0,0E0,0E0,0E0,0E0,0E0],"parents":[2147483647,0,0,1,1,3,3,4,4,5,5,6,6,7,7,8,8,9,9,10,10,11,11,12,12,13,13,14,14,16,16,17,17,18,18,19,19,20,20,21,21,24,24,25,25,27,27,28,28,30,30],"right_children":[2,4,-1,6,8,10,12,14,16,18,20,22,24,26,28,-1,30,32,34,36,38,40,-1,-1,42,44,-1,46,48,-1,50,-1,-1,-1,-1,-1,-1,-1,-1,-1,-1,-1,-1,-1,-1,-1,-1,-1,-1,-1,-1],"split_conditions":[2.6945302E0,1.029614E0,1.8632734E-2,3.5E0,1.7825149E0,-3.6039847E-1,-6.940304E-1,9.7842526E-1,1.8380699E0,-5.561687E-1,-1.7621538E-1,-9.1369045E-1,-6.001713E-1,9.8760176E-1,1.269943E0,8.529103E-3,1.8611377E0,-7.620745E-1,-4.6160236E-1,2.5E0,-1.8764609E-1,-1.1557052E0,3.1070116E-3,-4.9783457E-3,-5.744487E-1,7.133807E-1,5.566049E-3,2.1133146E0,1.6180999E0,-4.343033E-4,1.3964508E0,5.9991184E-4,-1.3456703E-3,7.5120763E-3,8.509636E-4,-1.25648035E-2,7.6538627E-4,6.2294854E-3,-1.1880927E-3,-1.3523286E-3,-3.5830468E-3,1.2611926E-3,-2.1182534E-3,-8.8197E-5,1.6182974E-3,-2.530768E-3,1.7002822E-4,2.8307247E-3,-2.111435E-4,4.1373614E-3,1.3407709E-3],"split_indices":[1,5,0,0,5,5,4,1,5,1,5,1,1,3,1,0,5,4,3,0,1,1,0,0,4,2,0,4,5,0,1,0,0,0,0,0,0,0,0,0,0,0,0,0,0,0,0,0,0,0,0],"split_type":[0,0,0,0,0,0,0,0,0,0,0,0,0,0,0,0,0,0,0,0,0,0,0,0,0,0,0,0,0,0,0,0,0,0,0,0,0,0,0,0,0,0,0,0,0,0,0,0,0,0,0],"sum_hessian":[1.24E2,1.23E2,1E0,1E2,2.3E1,7.3E1,2.7E1,1.8E1,5E0,3E1,4.3E1,1.5E1,1.2E1,7E0,1.1E1,1E0,4E0,2.5E1,5E0,4E0,3.9E1,1.3E1,2E0,3E0,9E0,5E0,2E0,6E0,5E0,1E0,3E0,1.1E1,1.4E1,3E0,2E0,2E0,2E0,4E0,3.5E1,1.2E1,1E0,1E0,8E0,2E0,3E0,4E0,2E0,4E0,1E0,1E0,2E0],"tree_param":{"num_deleted":"0","num_feature":"6","num_nodes":"51","size_leaf_vector":"0"}},{"base_weights":[4.666179E-4,-3.8111562E-4,5.2792788E-2,-2.631843E-3,4.5917993E-3,-2.0504612E-3,-2.6024655E-2,2.9128944E-3,1.3340294E-2,-2.6958813E-3,8.815438E-3,1.2345414E-2,1.9375677E-3,2.416575E-2,6.3420534E-3,-7.7807787E-4,-5.9302114E-3,1.7269716E-2,2.384439E-3,-1.0187775E-2,2.6573457E-3,-1.2304783E-3,8.542806E-3,-2.4071634E-3,1.5016759E-2,-3.166797E-2,-1.8975725E-3,-3.106594E-4,5.2348673E-3,1.8868978E-3,1.2885392E-2,1.1722505E-2,3.5754044E-3],"categories":[],"categories_nodes":[],"categories_segments":[],"categories_sizes":[],"default_left":[1,1,0,1,1,1,0,1,1,1,1,0,1,0,1,1,1,0,1,0,1,0,1,0,0,0,0,0,0,0,0,0,0],"id":19,"left_children":[1,3,-1,5,7,9,-1,11,13,15,17,-1,19,-1,21,23,25,-1,27,-1,29,-1,31,-1,-1,-1,-1,-1,-1,-1,-1,-1,-1],"loss_changes":[5.5649513E-3,1.3999769E-3,0E0,1.1162511E-3,5.33969E-4,6.198763E-4,0E0,2.888727E-4,3.0129426E-4,4.978134E-4,2.3066864E-4,0E0,3.063542E-4,0E0,9.38381E-5,1.3741672E-3,3.0536405E-3,0E0,3.2355E-5,0E0,2.1997206E-4,0E0,2.1266664E-5,0E0,0E0,0E0,0E0,0E0,0E0,0E0,0E0,0E0,0E0],"parents":[2147483647,0,0,1,1,3,3,4,4,5,5,7,7,8,8,9,9,10,10,12,12,14,14,15,15,16,16,18,18,20,20,22,22],"right_children":[2,4,-1,6,8,10,-1,12,14,16,18,-1,20,-1,22,24,26,-1,28,-1,30,-1,32,-1,-1,-1,-1,-1,-1,-1,-1,-1,-1],"split_conditions":[2.6945302E0,6.5461314E-1,1.5837837E-2,6.264732E-1,1.7825149E0,5.373636E-1,-7.807397E-3,5.98902E-1,1.8380699E0,-3.3790052E-1,3.9538956E-1,3.7036242E-3,6.264037E-1,7.249725E-3,1.8611377E0,-4.0344453E-1,-1.8125491E-1,5.180915E-3,1.4488238E0,-3.0563327E-3,2.2977853E0,-3.691435E-4,1.3964508E0,-7.2214904E-4,4.505028E-3,-9.500392E-3,-5.692718E-4,-9.319783E-5,1.5704603E-3,5.660694E-4,3.8656176E-3,3.5167516E-3,1.0726213E-3],"split_indices":[1,3,0,3,5,3,0,1,5,5,1,0,1,0,5,5,5,0,4,0,4,0,1,0,0,0,0,0,0,0,0,0,0],"split_type":[0,0,0,0,0,0,0,0,0,0,0,0,0,0,0,0,0,0,0,0,0,0,0,0,0,0,0,0,0,0,0,0,0],"sum_hessian":[1.24E2,1.23E2,1E0,8.5E1,3.8E1,8.4E1,1E0,3.3E1,5E0,8E1,4E0,2E0,3.1E1,1E0,4E0,5.1E1,2.9E1,1E0,3E0,1E0,3E1,1E0,3E0,4.7E1,4E0,3E0,2.6E1,2E0,1E0,2.9E1,1E0,1E0,2E0],"tree_param":{"num_deleted":"0","num_feature":"6","num_nodes":"33","size_leaf_vector":"0"}},{"base_weights":[5.2623975E-4,-1.9328792E-4,4.4873834E-2,-2.7906117E-3,2.8104014E-3,-3.9361548E-4,-5.1055313E-3,1.1072614E-2,1.2669951E-3,-7.00899E-3,1.9114608E-3,-1.4439949E-2,-2.5895864E-3,1.4803887E-3,1.8450316E-2,-2.5874158E-2,2.9369215E-3,-9.905314E-3,-2.710867E-3,5.8110137E-3,-8.889483E-4,-1.7285729E-2,-4.883667E-3,4.6721166E-3,-5.727873E-3,1.1835933E-2,-4.0674806E-3,1.9867886E-2,2.1539673E-3,3.5389833E-4,1.2288773E-2,-1.2184024E-2,1.5949213E-3,-1.8332204E-3,1.3262093E-2,-2.0941615E-2,-2.8740345E-3,7.2959065E-4,-5.9097013E-3,8.032747E-4,1.1249821E-2],"categories":[],"categories_nodes":[],"categories_segments":[],"categories_sizes":[],"default_left":[1,1,0,1,1,1,1,1,1,1,1,1,1,1,0,0,1,0,0,1,1,0,0,1,1,0,1,0,1,0,0,0,0,0,0,0,0,0,0,0,0],"id":20,"left_children":[1,3,-1,5,7,9,11,13,15,17,19,21,23,25,-1,-1,27,-1,-1,29,31,-1,-1,33,35,-1,37,-1,39,-1,-1,-1,-1,-1,-1,-1,-1,-1,-1,-1,-1],"loss_changes":[3.997339E-3,9.752354E-4,0E0,3.6976358E-4,7.255842E-4,5.3186144E-4,7.610925E-4,6.096036E-4,2.3421766E-3,8.5186824E-5,2.8909463E-4,1.0594772E-4,6.6486193E-4,3.3539848E-4,0E0,0E0,5.935015E-4,0E0,0E0,3.8449973E-4,4.683205E-4,0E0,0E0,5.2723853E-4,8.0816436E-4,0E0,3.9660714E-5,0E0,5.683913E-4,0E0,0E0,0E0,0E0,0E0,0E0,0E0,0E0,0E0,0E0,0E0,0E0],"parents":[2147483647,0,0,1,1,3,3,4,4,5,5,6,6,7,7,8,8,9,9,10,10,11,11,12,12,13,13,16,16,19,19,20,20,23,23,24,24,26,26,28,28],"right_children":[2,4,-1,6,8,10,12,14,16,18,20,22,24,26,-1,-1,28,-1,-1,30,32,-1,-1,34,36,-1,38,-1,40,-1,-1,-1,-1,-1,-1,-1,-1,-1,-1,-1,-1],"split_conditions":[2.6945302E0,-1.3103718E-1,1.34621505E-2,-6.7731524E-1,-1.3799366E-1,-1.5627302E0,-5.456315E-1,-6.1393523E-1,-2.3349397E-2,-1.6782373E0,-1.0236971E0,-6.5389156E-1,-3.3790052E-1,-8.4768647E-1,5.535095E-3,-7.7622477E-3,-1.8764609E-1,-2.9715945E-3,-8.1326015E-4,-1.1519763E0,-9.521929E-1,-5.1857186E-3,-1.4651002E-3,-4.0344453E-1,-3.966589E-1,3.55078E-3,-7.651814E-1,5.960366E-3,1.7825149E0,1.061695E-4,3.6866323E-3,-3.6552073E-3,4.7847643E-4,-5.499661E-4,3.978628E-3,-6.2824846E-3,-8.6221035E-4,2.188772E-4,-1.7729105E-3,2.4098241E-4,3.3749463E-3],"split_indices":[1,4,0,4,3,1,5,5,5,1,1,3,5,1,0,0,1,0,0,4,1,0,0,5,1,0,1,0,5,0,0,0,0,0,0,0,0,0,0,0,0],"split_type":[0,0,0,0,0,0,0,0,0,0,0,0,0,0,0,0,0,0,0,0,0,0,0,0,0,0,0,0,0,0,0,0,0,0,0,0,0,0,0,0,0],"sum_hessian":[1.24E2,1.23E2,1E0,6.6E1,5.7E1,3.3E1,3.3E1,8E0,4.9E1,8E0,2.5E1,6E0,2.7E1,4E0,4E0,2E0,4.7E1,4E0,4E0,1E1,1.5E1,4E0,2E0,8E0,1.9E1,1E0,3E0,1E0,4.6E1,6E0,4E0,2E0,1.3E1,5E0,3E0,2E0,1.7E1,1E0,2E0,4.1E1,5E0],"tree_param":{"num_deleted":"0","num_feature":"6","num_nodes":"41","size_leaf_vector":"0"}},{"base_weights":[4.4253608E-4,-1.6910153E-4,3.81428E-2,-1.6287882E-3,3.4442656E-3,-1.0077469E-3,-1.0051902E-2,2.3272051E-3,9.904599E-3,-2.3188342E-3,3.3036745E-3,-1.9140892E-2,-7.221848E-4,1.703433E-3,1.0832071E-2,1.5897313E-2,6.1035156E-4,-1.8025177E-3,-1.2388538E-2,8.587716E-3,-9.346632E-4,-3.9478242E-3,1.6689698E-3,2.5398151E-3,-4.5771003E-3,1.8853307E-2,4.992664E-3,-2.4125807E-3,4.395177E-3,-1.48371905E-2,-3.7456155E-3,3.5847935E-3,1.7398631E-2,-2.0699322E-2,5.088201E-3,2.383858E-3,1.1959672E-4,7.429097E-3,1.6559374E-3,-9.027183E-3,-8.467833E-5],"categories":[],"categories_nodes":[],"categories_segments":[],"categories_sizes":[],"default_left":[1,1,0,1,1,1,1,1,1,1,1,0,1,1,0,1,0,1,1,1,1,0,1,1,1,0,0,0,0,0,0,0,0,0,0,0,0,0,0,0,0],"id":21,"left_children":[1,3,-1,5,7,9,11,13,15,17,19,-1,21,23,-1,25,-1,27,29,31,33,-1,35,37,39,-1,-1,-1,-1,-1,-1,-1,-1,-1,-1,-1,-1,-1,-1,-1,-1],"loss_changes":[2.8888125E-3,6.5963354E-4,0E0,4.5543833E-4,2.3674691E-4,4.8248324E-4,4.949629E-4,1.5131145E-4,2.6878592E-4,3.1561448E-4,4.559377E-4,0E0,3.744081E-5,1.744657E-4,0E0,2.574001E-6,0E0,2.488057E-4,7.9161255E-6,3.3435237E-4,1.5338005E-3,0E0,3.0377832E-6,1.0870064E-4,7.920219E-5,0E0,0E0,0E0,0E0,0E0,0E0,0E0,0E0,0E0,0E0,0E0,0E0,0E0,0E0,0E0,0E0],"parents":[2147483647,0,0,1,1,3,3,4,4,5,5,6,6,7,7,8,8,9,9,10,10,12,12,13,13,15,15,17,17,18,18,19,19,20,20,22,22,23,23,24,24],"right_children":[2,4,-1,6,8,10,12,14,16,18,20,-1,22,24,-1,26,-1,28,30,32,34,-1,36,38,40,-1,-1,-1,-1,-1,-1,-1,-1,-1,-1,-1,-1,-1,-1,-1,-1],"split_conditions":[2.6945302E0,4.5591664E-1,1.144284E-2,3.841932E-1,1.5724616E0,-1.3103718E-1,4.4466767E-1,2.2977853E0,1.8780861E0,-2.656173E-1,-1.3799366E-1,-5.7422677E-3,3.3488587E-1,2.059898E0,3.2496215E-3,2.5E0,1.8310547E-4,-3.8502502E-1,4E0,-3.9115855E-1,-2.3349397E-2,-1.1843473E-3,1.5E0,5.17321E-1,2.1133146E0,5.6559923E-3,1.4977992E-3,-7.237742E-4,1.3185532E-3,-4.4511575E-3,-1.1236847E-3,1.0754381E-3,5.2195895E-3,-6.2097968E-3,1.5264603E-3,7.151574E-4,3.5879017E-5,2.2287292E-3,4.9678126E-4,-2.708155E-3,-2.54035E-5],"split_indices":[1,5,0,5,1,4,5,4,5,4,3,0,1,4,0,0,0,4,0,1,5,0,0,5,4,0,0,0,0,0,0,0,0,0,0,0,0,0,0,0,0],"split_type":[0,0,0,0,0,0,0,0,0,0,0,0,0,0,0,0,0,0,0,0,0,0,0,0,0,0,0,0,0,0,0,0,0,0,0,0,0,0,0,0,0],"sum_hessian":[1.24E2,1.23E2,1E0,8.8E1,3.5E1,8.3E1,5E0,3.1E1,4E0,6.4E1,1.9E1,2E0,3E0,3E1,1E0,2E0,2E0,6.2E1,2E0,8E0,1.1E1,1E0,2E0,2.7E1,3E0,1E0,1E0,5.7E1,5E0,1E0,1E0,6E0,2E0,2E0,9E0,1E0,1E0,3E0,2.4E1,1E0,2E0],"tree_param":{"num_deleted":"0","num_feature":"6","num_nodes":"41","size_leaf_vector":"0"}},{"base_weights":[4.095873E-4,-1.1003459E-4,3.242135E-2,-1.2361843E-3,3.459774E-3,-3.828023E-5,-3.2886404E-3,8.65736E-3,2.32717E-3,-1.2679853E-3,9.629157E-3,-9.805957E-3,-1.3090986E-3,2.4728377E-3,1.1956096E-2,-9.1696315E-4,5.6418385E-3,4.7870555E-5,-1.8057115E-2,1.2295272E-2,-3.1837672E-3,6.1618985E-4,-2.0382151E-2,1.14024505E-2,-2.2022096E-3,5.968213E-4,3.1124353E-3,2.4639417E-3,-5.8354936E-3,-4.2571127E-3,6.821511E-3,-1.2397701E-3,8.502671E-3,1.7066928E-2,5.642712E-3,4.461352E-3,-7.382229E-3,-1.4152274E-2,-1.1982736E-3,7.648673E-4,8.028269E-3,-8.702427E-3,-6.775061E-5,8.039328E-3,4.8828125E-4],"categories":[],"categories_nodes":[],"categories_segments":[],"categories_sizes":[],"default_left":[1,1,0,1,1,1,1,1,1,1,1,1,1,1,0,1,1,1,0,1,0,1,0,0,1,0,0,1,1,0,1,0,0,0,0,0,0,0,0,0,0,0,0,0,0],"id":22,"left_children":[1,3,-1,5,7,9,11,13,15,17,19,21,23,25,-1,27,29,31,-1,33,-1,35,-1,-1,37,-1,-1,39,41,-1,43,-1,-1,-1,-1,-1,-1,-1,-1,-1,-1,-1,-1,-1,-1],"loss_changes":[2.0828191E-3,5.0277414E-4,0E0,2.3344542E-4,1.5645704E-4,7.373835E-4,4.387086E-4,7.2440045E-5,2.847573E-4,1.2159286E-3,2.782704E-4,8.943725E-4,3.429897E-4,1.7421189E-6,0E0,2.4718547E-4,1.8084765E-4,5.766521E-4,0E0,9.4158575E-5,0E0,1.8671081E-4,0E0,0E0,3.069634E-4,0E0,0E0,7.89473E-5,9.8624834E-5,0E0,8.862716E-5,0E0,0E0,0E0,0E0,0E0,0E0,0E0,0E0,0E0,0E0,0E0,0E0,0E0,0E0],"parents":[2147483647,0,0,1,1,3,3,4,4,5,5,6,6,7,7,8,8,9,9,10,10,11,11,12,12,13,13,15,15,16,16,17,17,19,19,21,21,24,24,27,27,28,28,30,30],"right_children":[2,4,-1,6,8,10,12,14,16,18,20,22,24,26,-1,28,30,32,-1,34,-1,36,-1,-1,38,-1,-1,40,42,-1,44,-1,-1,-1,-1,-1,-1,-1,-1,-1,-1,-1,-1,-1,-1],"split_conditions":[2.6945302E0,7.902154E-1,9.726405E-3,-1.8764609E-1,9.4542325E-1,-1.8125491E-1,-2.040227E-1,1.0298116E0,1.269943E0,-3.3790052E-1,5E0,-4.1376916E-1,-6.354571E-2,1E0,3.586829E-3,5.7585084E-1,9.017633E-3,-5.3134155E-1,-5.4171346E-3,1.5E0,-9.551302E-4,7.199094E-1,-6.1146454E-3,3.4207352E-3,-2.3349397E-2,1.790464E-4,9.337306E-4,1.6114407E0,2.1133146E0,-1.2771338E-3,1.8780861E0,-3.7193103E-4,2.5508013E-3,5.1200786E-3,1.6928137E-3,1.3384055E-3,-2.2146688E-3,-4.245682E-3,-3.594821E-4,2.294602E-4,2.4084807E-3,-2.6107281E-3,-2.0325184E-5,2.4117986E-3,1.4648438E-4],"split_indices":[1,2,0,1,1,5,4,3,1,5,0,4,5,0,0,4,5,2,0,0,0,1,0,0,5,0,0,5,4,0,5,0,0,0,0,0,0,0,0,0,0,0,0,0,0],"split_type":[0,0,0,0,0,0,0,0,0,0,0,0,0,0,0,0,0,0,0,0,0,0,0,0,0,0,0,0,0,0,0,0,0,0,0,0,0,0,0,0,0,0,0,0,0],"sum_hessian":[1.24E2,1.23E2,1E0,9.4E1,2.9E1,6E1,3.4E1,4E0,2.5E1,5.4E1,6E0,7E0,2.7E1,2E0,2E0,1.3E1,1.2E1,5.1E1,3E0,5E0,1E0,4E0,3E0,1E0,2.6E1,1E0,1E0,8E0,5E0,1E0,1.1E1,4.5E1,6E0,2E0,3E0,3E0,1E0,1E0,2.5E1,7E0,1E0,3E0,2E0,9E0,2E0],"tree_param":{"num_deleted":"0","num_feature":"6","num_nodes":"45","size_leaf_vector":"0"}},{"base_weights":[3.6797143E-4,-7.354827E-5,2.7558208E-2,-4.22063E-4,6.8509183E-3,-6.651473E-3,-1.4754896E-4,1.4819384E-2,2.2933483E-3,-8.219361E-3,-2.8664272E-3,2.474243E-3,-7.595902E-4,6.8240166E-3,-5.453229E-4,4.557528E-4,1.1443511E-2,-6.2282304E-3,-3.4415985E-5,-1.6765594E-3,3.9060912E-4,2.4776272E-3,-7.745683E-3,-1.04106665E-2,8.7282655E-4,8.522868E-3,-4.5657303E-4],"categories":[],"categories_nodes":[],"categories_segments":[],"categories_sizes":[],"default_left":[1,1,0,1,1,1,1,0,1,0,0,1,1,0,1,1,0,1,1,0,0,0,0,0,0,0,0],"id":23,"left_children":[1,3,-1,5,7,9,11,-1,13,-1,-1,15,17,-1,19,21,-1,23,25,-1,-1,-1,-1,-1,-1,-1,-1],"loss_changes":[1.502655E-3,3.0213804E-4,0E0,2.0251577E-4,1.8391502E-4,6.1124447E-6,1.8641356E-4,0E0,6.802668E-5,0E0,0E0,3.930809E-4,3.7256302E-4,0E0,4.8899215E-6,3.3425412E-4,0E0,3.3578355E-4,3.073428E-4,0E0,0E0,0E0,0E0,0E0,0E0,0E0,0E0],"parents":[2147483647,0,0,1,1,3,3,4,4,5,5,6,6,8,8,11,11,12,12,14,14,15,15,17,17,18,18],"right_children":[2,4,-1,6,8,10,12,-1,14,-1,-1,16,18,-1,20,22,-1,24,26,-1,-1,-1,-1,-1,-1,-1,-1],"split_conditions":[2.6945302E0,1.7825149E0,8.267462E-3,-1.6782373E0,1.8380699E0,-1.7607423E0,-7.620745E-1,4.4458155E-3,1.22044E0,-2.4658085E-3,-8.599282E-4,-7.3596406E-1,-5.800083E-1,2.047205E-3,1.4239526E0,-8.77573E-1,3.4330534E-3,-2.4415779E-1,-5.0138557E-1,-5.0296786E-4,1.1718274E-4,7.432882E-4,-2.323705E-3,-3.1232E-3,2.6184798E-4,2.5568604E-3,-1.3697191E-4],"split_indices":[1,5,0,1,5,1,4,0,1,0,0,5,5,0,1,4,0,4,5,0,0,0,0,0,0,0,0],"split_type":[0,0,0,0,0,0,0,0,0,0,0,0,0,0,0,0,0,0,0,0,0,0,0,0,0,0,0],"sum_hessian":[1.24E2,1.23E2,1E0,1.18E2,5E0,4E0,1.14E2,1E0,4E0,2E0,2E0,2.1E1,9.3E1,1E0,3E0,1.8E1,3E0,1E1,8.3E1,1E0,2E0,1.5E1,3E0,6E0,4E0,3E0,8E1],"tree_param":{"num_deleted":"0","num_feature":"6","num_nodes":"27","size_leaf_vector":"0"}},{"base_weights":[3.5726788E-4,-1.7665552E-5,2.3424506E-2,-1.0043004E-3,2.158444E-3,-5.6618435E-4,-1.9122086E-2,1.1323482E-2,1.6192723E-3,-1.0112463E-3,6.757057E-3,6.9387164E-4,5.618351E-3,1.0154616E-4,-4.195489E-3,1.4043748E-2,1.4244467E-3,2.335262E-4,7.4822903E-3,1.2596488E-2,2.3559134E-3,-8.666927E-4,7.694631E-3,4.8958114E-3,-5.4101422E-3,-9.867152E-4,4.328966E-3,-4.3371716E-3,6.983044E-4,-2.835095E-4,5.0898395E-3],"categories":[],"categories_nodes":[],"categories_segments":[],"categories_sizes":[],"default_left":[1,1,0,1,1,1,0,0,1,1,1,1,1,1,1,0,1,1,0,0,1,0,0,0,0,0,0,0,0,0,0],"id":24,"left_children":[1,3,-1,5,7,9,-1,-1,11,13,15,17,19,21,23,-1,25,27,-1,-1,29,-1,-1,-1,-1,-1,-1,-1,-1,-1,-1],"loss_changes":[1.0814986E-3,2.683989E-4,0E0,6.7181507E-4,1.7438381E-4,2.8387323E-4,0E0,0E0,1.3673009E-4,2.8744154E-4,1.7428084E-4,9.825325E-5,1.2968392E-4,4.5513597E-4,2.5838532E-4,0E0,3.2284523E-5,6.888385E-5,0E0,0E0,4.4738936E-5,0E0,0E0,0E0,0E0,0E0,0E0,0E0,0E0,0E0,0E0],"parents":[2147483647,0,0,1,1,3,3,4,4,5,5,8,8,9,9,10,10,11,11,12,12,13,13,14,14,16,16,17,17,20,20],"right_children":[2,4,-1,6,8,10,-1,-1,12,14,16,18,20,22,24,-1,26,28,-1,-1,30,-1,-1,-1,-1,-1,-1,-1,-1,-1,-1],"split_conditions":[2.6945302E0,6.5461314E-1,7.027352E-3,6.264732E-1,5.49399E-1,5.373636E-1,-5.736626E-3,3.3970447E-3,1.5834622E0,-1.8764609E-1,3.9538956E-1,2.2977853E0,1.4143901E0,-1.8125491E-1,-1.6765727E-1,4.2131245E-3,1.4488238E0,6.264037E-1,2.2446872E-3,3.7789466E-3,1.8144765E0,-2.6000783E-4,2.3083894E-3,1.4687435E-3,-1.6230427E-3,-2.9601456E-4,1.2986899E-3,-1.3011515E-3,2.0949132E-4,-8.505285E-5,1.5269519E-3],"split_indices":[1,3,0,3,1,3,0,0,1,1,1,4,3,5,2,0,4,1,0,0,1,0,0,0,0,0,0,0,0,0,0],"split_type":[0,0,0,0,0,0,0,0,0,0,0,0,0,0,0,0,0,0,0,0,0,0,0,0,0,0,0,0,0,0,0],"sum_hessian":[1.24E2,1.23E2,1E0,8.5E1,3.8E1,8.4E1,1E0,1E0,3.7E1,8E1,4E0,3.1E1,6E0,6E1,2E1,1E0,3E0,3E1,1E0,1E0,5E0,5.4E1,6E0,2E0,1.8E1,2E0,1E0,2E0,2.8E1,3E0,2E0],"tree_param":{"num_deleted":"0","num_feature":"6","num_nodes":"31","size_leaf_vector":"0"}},{"base_weights":[3.9545566E-4,7.75027E-5,1.9910812E-2,-7.1603834E-4,2.0371596E-3,-3.0254517E-4,-6.3856035E-3,1.370467E-3,5.142212E-3,-7.225016E-4,6.4772666E-3,-1.6253773E-2,-1.1612147E-3,3.0961924E-3,-1.2571674E-3,1.0707021E-2,1.887846E-3,-3.039258E-4,-1.1364638E-2,2.1279901E-3,1.1937186E-2,-2.9140674E-3,2.925098E-3,1.900786E-3,8.838098E-3,-4.371447E-3,2.0367077E-3,5.6957006E-3,-4.8804283E-4,-8.4887375E-4,7.822089E-3,3.132065E-3,-4.4211745E-4,3.9828084E-3,-2.5800567E-3,7.472038E-4,-6.5683485E-3,3.2069485E-3,-2.4923682E-3,-1.5298128E-3,3.6915144E-4],"categories":[],"categories_nodes":[],"categories_segments":[],"categories_sizes":[],"default_left":[1,1,0,1,1,1,1,1,1,1,1,0,1,1,1,0,1,1,0,1,0,0,0,1,0,1,1,0,1,0,0,0,0,0,0,0,0,0,0,0,0],"id":25,"left_children":[1,3,-1,5,7,9,11,13,15,17,19,-1,21,23,25,-1,27,29,-1,31,-1,-1,-1,33,-1,35,37,-1,39,-1,-1,-1,-1,-1,-1,-1,-1,-1,-1,-1,-1],"loss_changes":[7.7407755E-4,1.9428715E-4,0E0,2.0671314E-4,6.747694E-5,2.4384676E-4,2.9045675E-4,1.4446425E-4,8.844634E-5,3.5290926E-4,9.33313E-5,0E0,4.4337452E-5,1.1361495E-4,1.4225798E-4,0E0,4.8014943E-5,3.5204383E-4,0E0,1.1707065E-5,0E0,0E0,0E0,1.6887252E-4,0E0,8.3624094E-5,4.5093664E-5,0E0,4.1367293E-6,0E0,0E0,0E0,0E0,0E0,0E0,0E0,0E0,0E0,0E0,0E0,0E0],"parents":[2147483647,0,0,1,1,3,3,4,4,5,5,6,6,7,7,8,8,9,9,10,10,12,12,13,13,14,14,16,16,17,17,19,19,23,23,25,25,26,26,28,28],"right_children":[2,4,-1,6,8,10,12,14,16,18,20,-1,22,24,26,-1,28,30,-1,32,-1,-1,-1,34,-1,36,38,-1,40,-1,-1,-1,-1,-1,-1,-1,-1,-1,-1,-1,-1],"split_conditions":[2.6945302E0,4.5591664E-1,5.973244E-3,3.841932E-1,1.7825149E0,9.7787446E-1,4.2762923E-1,9.7842526E-1,1.8380699E0,8.0682474E-1,3.5688722E-1,-4.876132E-3,1.3912195E0,1.0298116E0,1.253442E0,3.2121064E-3,1.22044E0,4.0964976E-1,-3.4093915E-3,3.238852E-1,3.581156E-3,-8.742202E-4,8.7752944E-4,8.328324E-1,2.6514293E-3,1.1539526E0,1.6180999E0,1.7087102E-3,1.4239526E0,-2.5466213E-4,2.3466267E-3,9.3961955E-4,-1.3263524E-4,1.1948426E-3,-7.74017E-4,2.2416115E-4,-1.9705046E-3,9.6208457E-4,-7.477105E-4,-4.5894386E-4,1.1074544E-4],"split_indices":[1,5,0,5,5,4,5,1,5,4,1,0,4,3,1,0,1,4,0,1,0,0,0,3,0,5,5,0,1,0,0,0,0,0,0,0,0,0,0,0,0],"split_type":[0,0,0,0,0,0,0,0,0,0,0,0,0,0,0,0,0,0,0,0,0,0,0,0,0,0,0,0,0,0,0,0,0,0,0,0,0,0,0,0,0],"sum_hessian":[1.24E2,1.23E2,1E0,8.8E1,3.5E1,8.3E1,5E0,3E1,5E0,7.9E1,4E0,1E0,4E0,1.8E1,1.2E1,1E0,4E0,7.7E1,2E0,3E0,1E0,3E0,1E0,1.6E1,2E0,6E0,6E0,1E0,3E0,7.3E1,4E0,2E0,1E0,1.1E1,5E0,2E0,4E0,5E0,1E0,1E0,2E0],"tree_param":{"num_deleted":"0","num_feature":"6","num_nodes":"41","size_leaf_vector":"0"}},{"base_weights":[3.5909456E-4,8.902044E-5,1.6924143E-2,-4.92556E-4,2.0111694E-3,6.5665634E-4,-1.8095891E-3,4.995744E-3,1.0153784E-3,-2.0010148E-4,8.7502E-3,-1.4155865E-2,-5.906678E-4,1.5030056E-3,7.2395466E-3,-3.6059014E-4,4.211962E-3,1.0297933E-3,-2.3071368E-3,1.2685458E-2,1.8982092E-3,-1.7001033E-2,-2.8101802E-3,5.191087E-3,-1.6984905E-3,-9.88293E-4,4.8413277E-3,9.100914E-3,1.8803179E-3,-8.0437494E-5,1.141876E-2,-4.924923E-3,2.5100878E-3,2.6420653E-3,2.052486E-4,7.2777956E-3,-3.664583E-3,-6.433334E-3,-3.33758E-4,-2.5186199E-3,8.568615E-4,-5.6564808E-5,3.8360555E-3],"categories":[],"categories_nodes":[],"categories_segments":[],"categories_sizes":[],"default_left":[1,1,0,1,1,1,1,1,1,1,1,1,1,0,0,1,1,1,1,0,1,0,0,1,1,1,0,0,1,0,0,0,0,0,0,0,0,0,0,0,0,0,0],"id":26,"left_children":[1,3,-1,5,7,9,11,13,15,17,19,21,23,-1,-1,25,27,29,31,-1,33,-1,-1,35,37,39,-1,-1,41,-1,-1,-1,-1,-1,-1,-1,-1,-1,-1,-1,-1,-1,-1],"loss_changes":[5.577172E-4,1.396073E-4,0E0,1.4648915E-4,8.111579E-5,3.623297E-4,6.6884974E-4,4.3978027E-5,1.02681974E-4,1.267646E-4,1.1074208E-4,8.134561E-5,2.7783366E-4,0E0,0E0,6.029405E-5,6.268246E-5,3.5847718E-4,2.3935037E-4,0E0,3.2356766E-6,0E0,0E0,1.5602451E-4,2.3047745E-4,4.7337144E-5,0E0,0E0,2.2945193E-5,0E0,0E0,0E0,0E0,0E0,0E0,0E0,0E0,0E0,0E0,0E0,0E0,0E0,0E0],"parents":[2147483647,0,0,1,1,3,3,4,4,5,5,6,6,7,7,8,8,9,9,10,10,11,11,12,12,15,15,16,16,17,17,18,18,20,20,23,23,24,24,25,25,28,28],"right_children":[2,4,-1,6,8,10,12,14,16,18,20,22,24,-1,-1,26,28,30,32,-1,34,-1,-1,36,38,40,-1,-1,42,-1,-1,-1,-1,-1,-1,-1,-1,-1,-1,-1,-1,-1,-1],"split_conditions":[2.6945302E0,8.609723E-1,5.077243E-3,-3.3790052E-1,1.0169276E0,-4.0344453E-1,-1.8125491E-1,7.8041315E-1,1.5834622E0,-6.7731524E-1,3E0,3E0,-1.8764609E-1,4.5090172E-4,2.171864E-3,1.8611377E0,1.4143901E0,-7.158495E-1,-2.4415779E-1,3.8056376E-3,-5.396676E-1,-5.10031E-3,-8.430541E-4,5E0,-2.040227E-1,1.253442E0,1.4523984E-3,2.7302743E-3,1.8144765E0,-2.413125E-5,3.4256282E-3,-1.477477E-3,7.530264E-4,7.926196E-4,6.157458E-5,2.1833389E-3,-1.099375E-3,-1.9300004E-3,-1.0012741E-4,-7.55586E-4,2.5705845E-4,-1.6969443E-5,1.1508167E-3],"split_indices":[1,3,0,5,1,5,5,1,1,4,0,0,1,0,0,5,3,4,4,0,1,0,0,0,4,1,0,0,1,0,0,0,0,0,0,0,0,0,0,0,0,0,0],"split_type":[0,0,0,0,0,0,0,0,0,0,0,0,0,0,0,0,0,0,0,0,0,0,0,0,0,0,0,0,0,0,0,0,0,0,0,0,0,0,0,0,0,0,0],"sum_hessian":[1.24E2,1.23E2,1E0,9.5E1,2.8E1,5.1E1,4.4E1,6E0,2.2E1,4.7E1,4E0,3E0,4.1E1,3E0,3E0,1.6E1,6E0,3E1,1.7E1,2E0,2E0,2E0,1E0,6E0,3.5E1,1.5E1,1E0,1E0,5E0,2.8E1,2E0,1.1E1,6E0,1E0,1E0,5E0,1E0,7E0,2.8E1,8E0,7E0,3E0,2E0],"tree_param":{"num_deleted":"0","num_feature":"6","num_nodes":"43","size_leaf_vector":"0"}},{"base_weights":[3.5508428E-4,1.2592236E-4,1.4385581E-2,-4.8901797E-3,3.3387725E-4,-7.813573E-3,-2.205938E-3,2.3304604E-3,-1.1318036E-4,7.4625015E-4,9.272844E-3,-3.7852204E-3,4.3681622E-4,2.2858717E-3,-5.5987984E-3,-7.4365363E-3,1.7140707E-3,3.8055736E-3,-2.0641916E-4,5.3974614E-3,-7.339716E-4,-7.1084104E-3,-5.349815E-4,-9.247056E-3,2.6185513E-3,4.790711E-3,-6.8345666E-3,-3.6567252E-3,5.354017E-3,-3.7251231E-3,9.083719E-4],"categories":[],"categories_nodes":[],"categories_segments":[],"categories_sizes":[],"default_left":[1,1,0,1,1,0,0,1,1,1,0,1,1,1,1,1,1,1,1,0,0,0,0,0,0,0,0,0,0,0,0],"id":27,"left_children":[1,3,-1,5,7,-1,-1,9,11,13,-1,15,17,19,21,23,25,27,29,-1,-1,-1,-1,-1,-1,-1,-1,-1,-1,-1,-1],"loss_changes":[4.0009548E-4,1.3097997E-4,0E0,2.1999214E-5,1.0737428E-4,0E0,0E0,2.3504042E-4,2.0159478E-4,1.9840861E-4,0E0,2.7378218E-4,1.8930617E-4,1.543058E-4,2.6774724E-5,1.6985333E-4,1.9054895E-4,1.8134744E-4,2.9365765E-4,0E0,0E0,0E0,0E0,0E0,0E0,0E0,0E0,0E0,0E0,0E0,0E0],"parents":[2147483647,0,0,1,1,3,3,4,4,7,7,8,8,9,9,11,11,12,12,13,13,14,14,15,15,16,16,17,17,18,18],"right_children":[2,4,-1,6,8,-1,-1,10,12,14,-1,16,18,20,22,24,26,28,30,-1,-1,-1,-1,-1,-1,-1,-1,-1,-1,-1,-1],"split_conditions":[2.6945302E0,-1.6782373E0,4.3156743E-3,3.5E0,-7.620745E-1,-2.3440719E-3,-6.6178147E-4,-7.3596406E-1,-6.3317335E-1,-8.77573E-1,2.781853E-3,-2.4415779E-1,-3.590786E-1,4.5E0,-9.521929E-1,-4.5287997E-1,-6.8817675E-1,-7.158495E-1,-2.8178953E-2,1.6192385E-3,-2.2019149E-4,-2.132523E-3,-1.6049446E-4,-2.774117E-3,7.855654E-4,1.4372134E-3,-2.05037E-3,-1.0970175E-3,1.6062051E-3,-1.117537E-3,2.7251156E-4],"split_indices":[1,1,0,0,4,0,0,5,1,4,0,4,5,0,1,5,1,4,5,0,0,0,0,0,0,0,0,0,0,0,0],"split_type":[0,0,0,0,0,0,0,0,0,0,0,0,0,0,0,0,0,0,0,0,0,0,0,0,0,0,0,0,0,0,0],"sum_hessian":[1.24E2,1.23E2,1E0,4E0,1.19E2,1E0,3E0,2.1E1,9.8E1,1.8E1,3E0,1.2E1,8.6E1,1.5E1,3E0,7E0,5E0,1.3E1,7.3E1,7E0,8E0,2E0,1E0,6E0,1E0,4E0,1E0,2E0,1.1E1,1.7E1,5.6E1],"tree_param":{"num_deleted":"0","num_feature":"6","num_nodes":"31","size_leaf_vector":"0"}},{"base_weights":[2.5063663E-4,5.543573E-5,1.2227774E-2,-5.365267E-4,1.3593674E-3,-2.1573526E-4,-1.39019005E-2,6.438571E-3,5.949278E-4,-4.8577538E-4,4.202062E-3,8.941352E-3,3.5775378E-3,-7.8288615E-3,1.0729469E-3,3.8227267E-4,-1.9741994E-3,1.0060415E-2,2.2237003E-4,-5.3550825E-3,1.4300109E-3,-3.0019754E-4,6.857532E-3,-1.0556802E-2,-6.2958436E-4,-1.7008582E-3,2.9960275E-3,3.6800496E-4,2.6798844E-3],"categories":[],"categories_nodes":[],"categories_segments":[],"categories_sizes":[],"default_left":[1,1,0,1,1,1,0,1,1,1,1,0,0,0,1,1,1,0,1,0,1,0,0,0,0,0,0,0,0],"id":28,"left_children":[1,3,-1,5,7,9,-1,11,13,15,17,-1,-1,-1,19,21,23,-1,25,-1,27,-1,-1,-1,-1,-1,-1,-1,-1],"loss_changes":[2.9156564E-4,9.644229E-5,0E0,3.657257E-4,1.4759655E-4,1.0344477E-4,0E0,3.8146827E-6,1.493356E-4,1.05408595E-4,1.1433506E-4,0E0,0E0,0E0,8.5695225E-5,2.3185555E-4,3.3956254E-4,0E0,2.6433325E-5,0E0,4.2817104E-5,0E0,0E0,0E0,0E0,0E0,0E0,0E0,0E0],"parents":[2147483647,0,0,1,1,3,3,4,4,5,5,7,7,8,8,9,9,10,10,14,14,15,15,16,16,18,18,20,20],"right_children":[2,4,-1,6,8,10,-1,12,14,16,18,-1,-1,-1,20,22,24,-1,26,-1,28,-1,-1,-1,-1,-1,-1,-1,-1],"split_conditions":[2.6945302E0,6.5461314E-1,3.6683322E-3,6.264732E-1,7.6248264E-1,5.373636E-1,-4.1705705E-3,5.49399E-1,6.264037E-1,-3.3790052E-1,3.9538956E-1,2.6824058E-3,1.0732614E-3,-2.3486586E-3,7.906226E-1,-4.0344453E-1,-1.8125491E-1,3.0181245E-3,1.4488238E0,-1.6065248E-3,8.2347035E-1,-9.0059264E-5,2.0572597E-3,-3.1670409E-3,-1.8887532E-4,-5.102575E-4,8.988083E-4,1.1040149E-4,8.039654E-4],"split_indices":[1,3,0,3,3,3,0,1,1,5,1,0,0,0,3,5,5,0,4,0,4,0,0,0,0,0,0,0,0],"split_type":[0,0,0,0,0,0,0,0,0,0,0,0,0,0,0,0,0,0,0,0,0,0,0,0,0,0,0,0,0],"sum_hessian":[1.24E2,1.23E2,1E0,8.5E1,3.8E1,8.4E1,1E0,4E0,3.4E1,8E1,4E0,1E0,3E0,1E0,3.3E1,5.1E1,2.9E1,1E0,3E0,1E0,3.2E1,4.7E1,4E0,3E0,2.6E1,2E0,1E0,1.8E1,1.4E1],"tree_param":{"num_deleted":"0","num_feature":"6","num_nodes":"29","size_leaf_vector":"0"}},{"base_weights":[1.9328912E-4,-1.4783182E-4,5.2006617E-3,-6.5965652E-3,-3.6333535E-5,7.024139E-3,-1.7984708E-4,1.3510173E-3,-4.28016E-4,1.7406493E-3,1.1727412E-2,2.2779405E-4,9.886463E-3,-4.4731563E-3,1.0487335E-5,-7.390678E-4,2.8135777E-3,1.5176206E-3,-4.977071E-3,-5.2292496E-3,7.877946E-4,5.16392E-3,-3.1173328E-4,-4.782847E-4,5.2926284E-3,-6.016493E-3,-4.0969253E-4,-1.6744137E-3,-6.135126E-3,-4.9985647E-3,7.126333E-7],"categories":[],"categories_nodes":[],"categories_segments":[],"categories_sizes":[],"default_left":[1,1,1,0,1,1,0,1,1,1,0,1,0,1,1,0,0,1,1,1,0,0,1,0,0,0,0,0,0,0,0],"id":29,"left_children":[1,3,5,-1,7,9,-1,11,13,15,-1,17,-1,19,21,-1,-1,23,25,27,-1,-1,29,-1,-1,-1,-1,-1,-1,-1,-1],"loss_changes":[2.1428378E-4,8.4604995E-5,7.9753154E-5,0E0,6.415617E-5,1.2868489E-4,0E0,2.4701538E-4,1.632372E-4,1.2721661E-5,0E0,1.6867428E-4,0E0,3.9919498E-5,1.4109533E-4,0E0,0E0,1.5322256E-4,2.1272252E-5,1.548919E-5,0E0,0E0,1.1715408E-4,0E0,0E0,0E0,0E0,0E0,0E0,0E0,0E0],"parents":[2147483647,0,0,1,1,2,2,4,4,5,5,7,7,8,8,9,9,11,11,13,13,14,14,17,17,18,18,19,19,22,22],"right_children":[2,4,6,-1,8,10,-1,12,14,16,-1,18,-1,20,22,-1,-1,24,26,28,-1,-1,30,-1,-1,-1,-1,-1,-1,-1,-1],"split_conditions":[1.5834622E0,-1.8982507E0,1.8780861E0,-1.9789697E-3,-8.079465E-1,1.9838376E-1,-5.3954125E-5,-8.930806E-1,-5.800083E-1,1.7594731E0,3.5182238E-3,-8.562411E-1,2.965939E-3,-5.671693E-1,-5.0138557E-1,-2.2172034E-4,8.440733E-4,-1.1519763E0,-9.6869385E-1,-7.651814E-1,2.3633838E-4,1.549176E-3,-4.4919032E-1,-1.4348542E-4,1.5877886E-3,-1.804948E-3,-1.2290776E-4,-5.0232414E-4,-1.8405379E-3,-1.4995695E-3,2.1379E-7],"split_indices":[1,1,5,0,2,4,0,3,5,1,0,4,0,1,5,0,0,4,1,1,0,0,5,0,0,0,0,0,0,0,0],"split_type":[0,0,0,0,0,0,0,0,0,0,0,0,0,0,0,0,0,0,0,0,0,0,0,0,0,0,0,0,0,0,0],"sum_hessian":[1.24E2,1.17E2,7E0,1E0,1.16E2,5E0,2E0,2.5E1,9.1E1,3E0,2E0,2.3E1,2E0,8E0,8.3E1,1E0,2E0,1.9E1,4E0,7E0,1E0,4E0,7.9E1,1.3E1,6E0,3E0,1E0,2E0,5E0,4E0,7.5E1],"tree_param":{"num_deleted":"0","num_feature":"6","num_nodes":"31","size_leaf_vector":"0"}},{"base_weights":[1.5556804E-4,1.7557324E-5,8.634448E-3,-5.6070685E-3,1.08871915E-4,-2.265188E-5,2.6773612E-3,9.3300696E-5,-4.498601E-3,4.123926E-3,-1.4384587E-4,-4.7322967E-5,2.6792884E-3,1.8729368E-3,5.438447E-3,1.4450802E-3,-3.5171368E-4,3.3632517E-3,-3.7026405E-4,3.9235353E-3,-1.11413E-3],"categories":[],"categories_nodes":[],"categories_segments":[],"categories_sizes":[],"default_left":[1,1,0,0,1,1,1,1,0,1,0,1,1,1,0,0,0,0,0,0,0],"id":30,"left_children":[1,3,-1,-1,5,7,9,11,-1,13,-1,15,17,19,-1,-1,-1,-1,-1,-1,-1],"loss_changes":[1.4612044E-4,6.429814E-5,0E0,0E0,4.1612195E-5,6.166147E-5,2.5079567E-5,4.2310316E-5,0E0,1.6500198E-6,0E0,5.0932627E-5,1.3759982E-5,2.2747152E-5,0E0,0E0,0E0,0E0,0E0,0E0,0E0],"parents":[2147483647,0,0,1,1,4,4,5,5,6,6,7,7,9,9,11,11,12,12,13,13],"right_children":[2,4,-1,-1,6,8,10,12,-1,14,-1,16,18,20,-1,-1,-1,-1,-1,-1,-1],"split_conditions":[2.6945302E0,-1.8982507E0,2.5903345E-3,-1.6821206E-3,1.7825149E0,1.6024414E0,1.5944629E0,1.323947E0,-1.3495804E-3,1.4184521E0,-4.3153763E-5,-1.0346979E0,1.3487303E0,1.22044E0,1.6315342E-3,4.3352405E-4,-1.0551411E-4,1.0089756E-3,-1.1107922E-4,1.1770607E-3,-3.34239E-4],"split_indices":[1,1,0,0,5,5,1,5,0,1,0,1,3,1,0,0,0,0,0,0,0],"split_type":[0,0,0,0,0,0,0,0,0,0,0,0,0,0,0,0,0,0,0,0,0],"sum_hessian":[1.24E2,1.23E2,1E0,1E0,1.22E2,1.17E2,5E0,1.15E2,2E0,3E0,2E0,1.1E2,5E0,2E0,1E0,1.8E1,9.2E1,4E0,1E0,1E0,1E0],"tree_param":{"num_deleted":"0","num_feature":"6","num_nodes":"21","size_leaf_vector":"0"}},{"base_weights":[1.346096E-4,-3.9474016E-5,5.4105073E-3,-2.625227E-3,1.6501064E-4,2.3211837E-3,7.339239E-3,-4.7659874E-3,-1.7618835E-3,2.8122962E-3,-1.4501302E-4,5.4187246E-4,7.2176754E-3,-6.350413E-3,1.0465311E-4,1.602149E-3,-6.267786E-4,5.1510213E-3,-1.5926872E-4,2.7329524E-3,-6.2704086E-5,-1.1779467E-3,1.3331573E-4,6.055236E-4,7.979512E-3,-3.9574928E-3,1.3791838E-4],"categories":[],"categories_nodes":[],"categories_segments":[],"categories_sizes":[],"default_left":[1,1,1,1,1,0,0,0,0,1,1,1,0,0,1,1,1,1,1,0,0,0,0,0,0,0,0],"id":31,"left_children":[1,3,5,7,9,-1,-1,-1,-1,11,13,15,-1,-1,17,19,21,23,25,-1,-1,-1,-1,-1,-1,-1,-1],"loss_changes":[1.1501949E-4,6.49403E-5,6.798189E-6,8.236784E-6,9.397003E-5,8.209645E-8,0E0,0E0,0E0,1.16113864E-4,1.6024023E-4,1.2156033E-5,0E0,0E0,1.3400508E-4,9.584475E-6,2.2517374E-6,5.945271E-5,1.08909E-4,0E0,0E0,0E0,0E0,0E0,0E0,0E0,0E0],"parents":[2147483647,0,0,1,1,2,2,3,3,4,4,9,9,10,10,11,11,14,14,15,15,16,16,17,17,18,18],"right_children":[2,4,6,8,10,-1,-1,-1,-1,12,14,16,-1,-1,18,20,22,24,26,-1,-1,-1,-1,-1,-1,-1,-1],"split_conditions":[1.8144765E0,-1.5627302E0,2.6945302E0,3.5E0,-1.0346979E0,6.963551E-4,2.2017718E-3,-1.4297962E-3,-5.285651E-4,-1.2382103E0,-9.521929E-1,-1.3867195E0,2.1653026E-3,-1.9051239E-3,-8.079465E-1,4.5E0,3.5E0,-8.930806E-1,-6.961014E-1,8.1988575E-4,-1.8811226E-5,-3.53384E-4,3.999472E-5,1.8165709E-4,2.3938539E-3,-1.1872479E-3,4.1375515E-5],"split_indices":[1,1,1,0,1,0,0,0,0,1,1,1,0,0,2,0,0,3,3,0,0,0,0,0,0,0,0],"split_type":[0,0,0,0,0,0,0,0,0,0,0,0,0,0,0,0,0,0,0,0,0,0,0,0,0,0,0],"sum_hessian":[1.24E2,1.21E2,3E0,8E0,1.13E2,2E0,1E0,1E0,7E0,1.1E1,1.02E2,8E0,3E0,3E0,9.9E1,4E0,4E0,4E0,9.5E1,2E0,2E0,2E0,2E0,2E0,2E0,6E0,8.9E1],"tree_param":{"num_deleted":"0","num_feature":"6","num_nodes":"27","size_leaf_vector":"0"}},{"base_weights":[1.1916739E-4,-9.097734E-5,3.2039061E-3,-2.554357E-3,4.06267E-5,4.343202E-3,-1.4265378E-4,-4.0510893E-3,-1.4447927E-3,8.0963323E-4,-4.8018104E-4,1.0946542E-3,7.2268643E-3,2.4190615E-4,6.710291E-3,-8.05829E-3,-1.2844609E-4,2.407968E-3,-1.457731E-4,5.141773E-4,-3.5597682E-3,1.4850894E-3,1.1192948E-2,-1.1823982E-2,-2.6345253E-4,3.6586798E-3,-7.906007E-4,4.03445E-5,4.8870444E-3,-1.4635226E-3,5.122171E-3,-1.0269262E-2,-7.383691E-5],"categories":[],"categories_nodes":[],"categories_segments":[],"categories_sizes":[],"default_left":[1,1,1,1,1,1,0,0,0,1,1,1,0,1,1,1,1,0,0,1,0,0,0,0,0,1,1,0,0,0,0,0,0],"id":32,"left_children":[1,3,5,7,9,11,-1,-1,-1,13,15,17,-1,19,21,23,25,-1,-1,27,-1,-1,-1,-1,-1,29,31,-1,-1,-1,-1,-1,-1],"loss_changes":[8.132168E-5,3.8358277E-5,3.1121344E-5,4.1113417E-6,4.5645786E-5,4.829537E-5,0E0,0E0,0E0,1.5247506E-4,1.8021798E-4,6.8672985E-6,0E0,4.633906E-5,7.70686E-5,8.494382E-5,1.6839831E-4,0E0,9.3198315E-7,8.475516E-5,0E0,2.1604501E-7,0E0,0E0,0E0,8.245937E-5,3.8649753E-4,0E0,0E0,0E0,0E0,0E0,0E0],"parents":[2147483647,0,0,1,1,2,2,3,3,4,4,5,5,9,9,10,10,11,11,13,13,14,14,15,15,16,16,19,19,25,25,26,26],"right_children":[2,4,6,8,10,12,-1,-1,-1,14,16,18,-1,20,22,24,26,-1,-1,28,-1,-1,-1,-1,-1,30,32,-1,-1,-1,-1,-1,-1],"split_conditions":[1.5834622E0,-1.6122333E0,1.8780861E0,3.5E0,-3.590786E-1,1.9838376E-1,-4.2796135E-5,-1.2153268E-3,-4.3343785E-4,-4.0344453E-1,-4.4284242E-1,3.744141E-1,2.1680593E-3,-4.4616193E-1,-4.2966092E-1,3E0,-4.1376916E-1,7.223904E-4,-4.3731932E-5,-4.4919032E-1,-1.0679305E-3,4.4552685E-4,3.3578845E-3,-3.5471946E-3,-7.903576E-5,-6.5857E-1,-3.8620818E-1,1.2103351E-5,1.4661134E-3,-4.3905678E-4,1.5366513E-3,-3.0807788E-3,-2.2151075E-5],"split_indices":[1,1,5,0,5,4,0,0,0,5,3,5,0,1,1,0,4,0,0,5,0,0,0,0,0,4,4,0,0,0,0,0,0],"split_type":[0,0,0,0,0,0,0,0,0,0,0,0,0,0,0,0,0,0,0,0,0,0,0,0,0,0,0,0,0,0,0,0,0],"sum_hessian":[1.24E2,1.17E2,7E0,5E0,1.12E2,5E0,2E0,1E0,4E0,4.5E1,6.7E1,3E0,2E0,4.2E1,3E0,2E0,6.5E1,1E0,2E0,4E1,2E0,2E0,1E0,1E0,1E0,9E0,5.6E1,3.7E1,3E0,2E0,7E0,3E0,5.3E1],"tree_param":{"num_deleted":"0","num_feature":"6","num_nodes":"33","size_leaf_vector":"0"}},{"base_weights":[8.131665E-5,-1.415449E-4,2.191725E-3,-2.6660528E-5,-3.2941997E-3,-1.5800595E-3,2.6782562E-3,-2.7094787E-4,3.1524077E-3,-5.536139E-3,-7.015069E-4,3.75915E-3,6.293535E-4,2.7803512E-4,-1.3611725E-3,3.3708555E-3,8.1163645E-4,1.8140853E-3,5.7478747E-3,-1.2014707E-3,2.2503932E-3,-2.0752836E-4,8.341715E-3,-8.461376E-3,-1.7206972E-4,1.9647242E-3,4.5907893E-3,3.140082E-3,-1.16606556E-4,-1.773417E-3,-2.8789043E-5,3.5179853E-3,-1.423955E-4,-8.610755E-3,1.8350562E-4,1.0214973E-2,-8.5880357E-4,3.2462478E-3,2.8292337E-5],"categories":[],"categories_nodes":[],"categories_segments":[],"categories_sizes":[],"default_left":[1,1,1,1,1,0,1,1,1,0,0,1,1,1,1,1,0,1,0,1,1,1,0,0,1,1,0,0,0,0,0,0,0,0,0,0,0,0,0],"id":33,"left_children":[1,3,5,7,9,-1,11,13,15,-1,-1,17,19,21,23,25,-1,27,-1,29,31,33,-1,-1,35,37,-1,-1,-1,-1,-1,-1,-1,-1,-1,-1,-1,-1,-1],"loss_changes":[5.910133E-5,4.1201918E-5,2.6252896E-5,8.7057415E-5,1.9367002E-5,0E0,2.1995278E-5,6.262399E-5,1.3547833E-6,0E0,0E0,1.665025E-5,1.7542974E-5,2.7581112E-4,2.9404456E-4,2.988083E-6,0E0,1.31666075E-5,0E0,1.961078E-6,9.600186E-6,2.2173858E-4,0E0,0E0,2.2989982E-4,1.2316072E-5,0E0,0E0,9.377227E-7,0E0,0E0,0E0,0E0,0E0,0E0,0E0,0E0,0E0,0E0],"parents":[2147483647,0,0,1,1,2,2,3,3,4,4,6,6,7,7,8,8,11,11,12,12,13,13,14,14,15,15,17,17,19,19,20,20,21,21,24,24,25,25],"right_children":[2,4,6,8,10,-1,12,14,16,-1,-1,18,20,22,24,26,-1,28,-1,30,32,34,-1,-1,36,38,-1,-1,-1,-1,-1,-1,-1,-1,-1,-1,-1,-1,-1],"split_conditions":[1.4129518E0,1.2643106E0,9.017633E-3,1.5373646E0,1.0939323E0,-4.7401787E-4,1.6530468E0,2.8843503E-4,9.454232E-1,-1.6608417E-3,-2.1045208E-4,1.9838376E-1,8.2347035E-1,-3.3248488E-2,1.1736769E-1,7.8041315E-1,2.4349094E-4,3.744141E-1,1.7243625E-3,1.627465E0,1.5944629E0,5E-1,2.5025145E-3,-2.5384128E-3,-1.3264272E-1,6.539054E-1,1.3772368E-3,9.420246E-4,-3.4981967E-5,-5.320251E-4,-8.636714E-6,1.0553957E-3,-4.271865E-5,-2.5832267E-3,5.505169E-5,3.064492E-3,-2.5764108E-4,9.7387435E-4,8.487702E-6],"split_indices":[1,3,5,4,1,0,5,5,1,0,0,4,4,5,5,1,0,5,0,1,1,0,0,0,1,1,0,0,0,0,0,0,0,0,0,0,0,0,0],"split_type":[0,0,0,0,0,0,0,0,0,0,0,0,0,0,0,0,0,0,0,0,0,0,0,0,0,0,0,0,0,0,0,0,0,0,0,0,0,0,0],"sum_hessian":[1.24E2,1.13E2,1.1E1,1.1E2,3E0,1E0,1E1,1.03E2,7E0,1E0,2E0,6E0,4E0,6.9E1,3.4E1,6E0,1E0,4E0,2E0,2E0,2E0,6.6E1,3E0,4E0,3E1,4E0,2E0,2E0,2E0,1E0,1E0,1E0,1E0,2E0,6.4E1,1E0,2.9E1,2E0,2E0],"tree_param":{"num_deleted":"0","num_feature":"6","num_nodes":"39","size_leaf_vector":"0"}},{"base_weights":[8.5739615E-5,-3.6654418E-4,8.7045616E-4,2.817242E-4,-1.516317E-3,7.4248747E-3,6.944314E-5,-1.5154977E-4,4.3848096E-3,-1.0077924E-2,-8.5061946E-4,-2.9260963E-3,1.0744141E-2,-5.9789214E-3,6.880076E-4,5.7007954E-5,-3.2989185E-3,7.377714E-4,9.486482E-3,2.8096337E-3,-2.4552024E-3,-6.8527684E-3,-1.6786903E-3,7.343143E-3,3.1963186E-4,-3.008204E-4,3.0513643E-3,-4.845619E-3,-1.0275841E-4,1.547277E-3,-4.7822792E-5,1.0666719E-3,5.94E-3,-5.052516E-3,1.2919171E-4,-3.2145109E-3,9.5251744E-4,-5.874038E-6,-4.133165E-3,6.124407E-3,7.52002E-4,2.254824E-3,-3.0311197E-3,-8.455986E-3,-1.374205E-3,7.538812E-4,-1.7879406E-3,8.004904E-4,-1.1644758E-2,2.8681369E-3,1.14654504E-4],"categories":[],"categories_nodes":[],"categories_segments":[],"categories_sizes":[],"default_left":[1,1,1,1,1,1,1,1,1,0,1,0,0,1,1,1,1,1,0,1,1,0,0,0,1,1,1,0,0,0,0,1,0,1,1,1,1,0,0,0,0,0,0,0,0,0,0,0,0,0,0],"id":34,"left_children":[1,3,5,7,9,11,13,15,17,-1,19,-1,-1,21,23,25,27,29,-1,31,33,-1,-1,-1,35,37,39,-1,-1,-1,-1,41,-1,43,45,47,49,-1,-1,-1,-1,-1,-1,-1,-1,-1,-1,-1,-1,-1,-1],"loss_changes":[4.468338E-5,6.005609E-5,2.4099242E-4,9.310805E-5,1.5671128E-4,2.0322658E-4,1.6124829E-4,3.1695654E-5,8.6031105E-5,0E0,1.7134726E-4,0E0,0E0,3.527297E-6,9.326493E-5,5.020533E-5,1.4332578E-5,2.617767E-6,0E0,4.2768952E-5,1.3490237E-4,0E0,0E0,0E0,8.8056775E-5,4.7449834E-5,3.072463E-5,0E0,0E0,0E0,1.8422662E-7,4.091623E-5,0E0,1.1356996E-4,1.4521632E-5,2.1240623E-4,5.2637028E-5,0E0,0E0,0E0,0E0,0E0,0E0,0E0,0E0,0E0,0E0,0E0,0E0,0E0,0E0],"parents":[2147483647,0,0,1,1,2,2,3,3,4,4,5,5,6,6,7,7,8,8,10,10,13,13,14,14,15,15,16,16,17,17,19,19,20,20,24,24,25,25,26,26,31,31,33,33,34,34,35,35,36,36],"right_children":[2,4,6,8,10,12,14,16,18,-1,20,-1,-1,22,24,26,28,30,-1,32,34,-1,-1,-1,36,38,40,-1,-1,-1,-1,42,-1,44,46,48,50,-1,-1,-1,-1,-1,-1,-1,-1,-1,-1,-1,-1,-1,-1],"split_conditions":[3.8030243E-1,-3.3790052E-1,5.4295547E-2,-4.0344453E-1,-4.4284242E-1,-1.7621538E-1,1.0937208E-1,1.4269343E-1,-4.2966092E-1,-3.0233772E-3,-4.2727125E-1,-8.778289E-4,3.2232425E-3,8.187039E-2,1.293366E-1,-2.4415779E-1,-5.671693E-1,-5.396676E-1,2.8459446E-3,-5.038759E-1,1.1736769E-1,-2.0558306E-3,-5.036071E-4,2.202943E-3,4.4592756E-1,-4.8016605E-1,-8.4768647E-1,-1.4536858E-3,-3.0827523E-5,4.641831E-4,-1.4346838E-5,-3.8408015E-2,1.7820001E-3,2.5E0,2.7656597E-1,3.7888855E-1,8.328324E-1,-1.7622115E-6,-1.2399495E-3,1.8373221E-3,2.2560061E-4,6.764472E-4,-9.0933597E-4,-2.536796E-3,-4.1226152E-4,2.2616437E-4,-5.363822E-4,2.4014713E-4,-3.4934275E-3,8.6044107E-4,3.439635E-5],"split_indices":[4,5,3,5,3,5,1,4,1,0,4,0,0,1,5,4,1,1,0,4,5,0,0,0,5,4,1,0,0,0,0,5,0,0,4,1,3,0,0,0,0,0,0,0,0,0,0,0,0,0,0],"split_type":[0,0,0,0,0,0,0,0,0,0,0,0,0,0,0,0,0,0,0,0,0,0,0,0,0,0,0,0,0,0,0,0,0,0,0,0,0,0,0,0,0,0,0,0,0,0,0,0,0,0,0],"sum_hessian":[1.24E2,7.9E1,4.5E1,5.1E1,2.8E1,4E0,4.1E1,4.7E1,4E0,1E0,2.7E1,1E0,3E0,3E0,3.8E1,4.5E1,2E0,3E0,1E0,8E0,1.9E1,2E0,1E0,1E0,3.7E1,4.1E1,4E0,1E0,1E0,1E0,2E0,6E0,2E0,9E0,1E1,5E0,3.2E1,3.9E1,2E0,1E0,3E0,5E0,1E0,4E0,5E0,8E0,2E0,4E0,1E0,9E0,2.3E1],"tree_param":{"num_deleted":"0","num_feature":"6","num_nodes":"51","size_leaf_vector":"0"}},{"base_weights":[4.025674E-5,-5.7790367E-5,3.0206293E-3,-1.7789868E-3,7.860049E-5,1.177609E-3,4.274845E-3,-3.4700632E-3,-1.1338443E-3,2.129684E-3,-1.611238E-4,3.7529733E-4,5.5446327E-3,-4.6610534E-3,2.0484626E-5,1.2293577E-3,-5.538225E-4,1.6002357E-3,6.3260198E-3,3.7006855E-3,-1.7140589E-4,2.1427076E-3,-9.377798E-5,-9.860197E-4,6.298224E-5,4.4081607E-4,5.726993E-3,-2.8460424E-3,1.0408427E-4],"categories":[],"categories_nodes":[],"categories_segments":[],"categories_sizes":[],"default_left":[1,1,1,1,1,0,0,0,0,1,1,1,1,0,1,1,1,0,0,1,1,0,0,0,0,0,0,0,0],"id":35,"left_children":[1,3,5,7,9,-1,-1,-1,-1,11,13,15,17,-1,19,21,23,-1,-1,25,27,-1,-1,-1,-1,-1,-1,-1,-1],"loss_changes":[3.6701673E-5,2.8779994E-5,4.2120846E-6,5.8843543E-6,5.6396315E-5,3.0303045E-7,0E0,0E0,0E0,6.98128E-5,8.426966E-5,7.822567E-6,2.2052845E-6,0E0,7.125389E-5,6.2433664E-6,1.3950083E-6,0E0,0E0,3.0502939E-5,7.103248E-5,0E0,0E0,0E0,0E0,0E0,0E0,0E0,0E0],"parents":[2147483647,0,0,1,1,2,2,3,3,4,4,9,9,10,10,11,11,12,12,14,14,15,15,16,16,19,19,20,20],"right_children":[2,4,6,8,10,-1,-1,-1,-1,12,14,16,18,-1,20,22,24,-1,-1,26,28,-1,-1,-1,-1,-1,-1,-1,-1],"split_conditions":[1.8144765E0,-1.5627302E0,2.6945302E0,3.5E0,-1.0346979E0,3.532827E-4,1.2824535E-3,-1.041019E-3,-3.401533E-4,-1.2382103E0,-9.521929E-1,-1.3867195E0,-1.0117123E0,-1.3983161E-3,-8.079465E-1,4.5E0,3.5E0,4.8007074E-4,1.897806E-3,-8.930806E-1,-5.800083E-1,6.428123E-4,-2.8133394E-5,-2.9580592E-4,1.8894672E-5,1.3224482E-4,1.718098E-3,-8.5381273E-4,3.122528E-5],"split_indices":[1,1,1,0,1,0,0,0,0,1,1,1,4,0,2,0,0,0,0,3,5,0,0,0,0,0,0,0,0],"split_type":[0,0,0,0,0,0,0,0,0,0,0,0,0,0,0,0,0,0,0,0,0,0,0,0,0,0,0,0,0],"sum_hessian":[1.24E2,1.21E2,3E0,8E0,1.13E2,2E0,1E0,1E0,7E0,1.1E1,1.02E2,8E0,3E0,3E0,9.9E1,4E0,4E0,1E0,2E0,4E0,9.5E1,2E0,2E0,2E0,2E0,2E0,2E0,8E0,8.7E1],"tree_param":{"num_deleted":"0","num_feature":"6","num_nodes":"29","size_leaf_vector":"0"}},{"base_weights":[4.897213E-5,-9.239681E-6,3.6336184E-3,-9.8821496E-5,1.7690063E-3,-1.3529745E-5,-3.3922594E-3,2.7591288E-3,-1.4082591E-4,-1.9182444E-3,7.08694E-5,-2.9495358E-3,-9.230375E-4,6.0136075E-4,-3.023241E-4,2.0969185E-4,4.7593787E-3,-5.894502E-3,-3.9572442E-5],"categories":[],"categories_nodes":[],"categories_segments":[],"categories_sizes":[],"default_left":[1,1,0,1,1,1,0,0,0,1,1,0,0,1,1,0,0,0,0],"id":36,"left_children":[1,3,-1,5,7,9,-1,-1,-1,11,13,-1,-1,15,17,-1,-1,-1,-1],"loss_changes":[2.6117168E-5,1.992783E-5,0E0,3.338157E-5,1.1734364E-5,1.8944429E-5,0E0,0E0,0E0,2.4092096E-6,2.2553086E-5,0E0,2.7482247E-7,7.5544616E-5,9.8213466E-5,0E0,0E0,0E0,0E0],"parents":[2147483647,0,0,1,1,3,3,4,4,5,5,9,9,10,10,13,13,14,14],"right_children":[2,4,-1,6,8,10,-1,-1,-1,12,14,-1,-1,16,18,-1,-1,-1,-1],"split_conditions":[2.6945302E0,1.7825149E0,1.0900856E-3,1.6024414E0,1.5944629E0,-1.6782373E0,-1.0176778E-3,8.2773867E-4,-4.2247775E-5,3.5E0,-3.590786E-1,-8.848608E-4,-2.7691128E-4,-4.0344453E-1,-4.4284242E-1,6.290756E-5,1.4278137E-3,-1.7683507E-3,-1.18717335E-5],"split_indices":[1,5,0,5,1,1,0,0,0,0,5,0,0,5,3,0,0,0,0],"split_type":[0,0,0,0,0,0,0,0,0,0,0,0,0,0,0,0,0,0,0],"sum_hessian":[1.24E2,1.23E2,1E0,1.18E2,5E0,1.16E2,2E0,3E0,2E0,4E0,1.12E2,1E0,3E0,4.6E1,6.6E1,4.3E1,3E0,2E0,6.4E1],"tree_param":{"num_deleted":"0","num_feature":"6","num_nodes":"19","size_leaf_vector":"0"}},{"base_weights":[2.9537707E-5,-1.0622172E-4,1.3167908E-3,-7.683059E-6,-2.814114E-3,-1.1466146E-3,1.6449745E-3,-2.2398065E-4,1.9790204E-3,-4.732609E-3,-5.970796E-4,2.0480885E-3,-1.1269251E-4,-6.1025487E-5,-5.5268407E-3,-2.8795004E-4,2.514786E-3,1.1698093E-3,3.4147103E-3,-2.1128262E-4,7.3320866E-3,9.796917E-4,-1.4116168E-3,-2.0962954E-4,2.2567958E-3,6.0955404E-5,-4.3957583E-3,1.2916625E-3,-1.1406144E-3,9.499987E-4,3.0885935E-3],"categories":[],"categories_nodes":[],"categories_segments":[],"categories_sizes":[],"default_left":[1,1,1,1,1,0,1,1,1,0,0,1,0,1,0,1,0,1,0,1,0,0,0,1,1,0,0,0,0,0,0],"id":37,"left_children":[1,3,5,7,9,-1,11,13,15,-1,-1,17,-1,19,-1,21,-1,23,-1,25,-1,-1,-1,27,29,-1,-1,-1,-1,-1,-1],"loss_changes":[2.1984464E-5,3.0397236E-5,1.1587545E-5,4.8142094E-5,1.4187732E-5,0E0,8.024748E-6,8.69397E-5,1.4084348E-5,0E0,0E0,6.8079207E-6,0E0,1.11525056E-4,0E0,5.6561703E-6,7.1086833E-7,1.096911E-5,0E0,1.1190693E-4,0E0,0E0,0E0,7.064009E-6,1.4138041E-6,0E0,0E0,0E0,0E0,0E0,0E0],"parents":[2147483647,0,0,1,1,2,2,3,3,4,4,6,6,7,7,8,8,11,11,13,13,15,15,17,17,19,19,23,23,24,24],"right_children":[2,4,6,8,10,-1,12,14,16,-1,-1,18,-1,20,-1,22,-1,24,-1,26,-1,-1,-1,28,30,-1,-1,-1,-1,-1,-1],"split_conditions":[1.4129518E0,1.2643106E0,9.017633E-3,1.4690189E0,1.0939323E0,-3.4398437E-4,1.8780861E0,1.390825E0,5.696662E-1,-1.4197826E-3,-1.7912388E-4,7.5897586E-1,-3.3807755E-5,1.3231986E0,-1.6580523E-3,6.099027E-1,7.5443584E-4,1.7594731E0,1.0244132E-3,1.1332762E0,2.199626E-3,2.9390753E-4,-4.2348506E-4,1.5329509E0,2.6945302E0,1.8286622E-5,-1.3187275E-3,3.8749876E-4,-3.4218433E-4,2.849996E-4,9.2657807E-4],"split_indices":[1,3,5,4,1,0,5,4,5,0,0,4,0,4,0,1,0,1,0,4,0,0,0,2,1,0,0,0,0,0,0],"split_type":[0,0,0,0,0,0,0,0,0,0,0,0,0,0,0,0,0,0,0,0,0,0,0,0,0,0,0,0,0,0,0],"sum_hessian":[1.24E2,1.13E2,1.1E1,1.1E2,3E0,1E0,1E1,1E2,1E1,1E0,2E0,8E0,2E0,9.8E1,2E0,2E0,8E0,6E0,2E0,9.7E1,1E0,1E0,1E0,3E0,3E0,9.2E1,5E0,1E0,2E0,2E0,1E0],"tree_param":{"num_deleted":"0","num_feature":"6","num_nodes":"31","size_leaf_vector":"0"}},{"base_weights":[2.2043883E-5,-2.740006E-4,5.3642463E-4,2.6377922E-4,-1.2288471E-3,5.6363656E-3,-8.3483224E-5,-2.1530307E-4,2.297455E-3,-7.706821E-3,-7.222473E-4,-2.5060177E-3,8.298466E-3,-4.8533417E-3,4.0787362E-4,1.9830313E-4,-3.3983707E-3,4.4140476E-3,-1.9809455E-3,1.8816299E-3,-2.054696E-3,-6.397724E-3,-2.2059728E-3,4.4264644E-3,-1.778643E-4,-3.2019956E-4,3.7881613E-3,-8.554101E-3,2.8901498E-3,7.404655E-3,3.1992793E-4,-1.4355779E-4,-2.5455554E-3,2.7263733E-3,-9.982288E-4,-4.28114E-3,-4.626946E-5,5.3661205E-3,3.3392012E-4,-9.248357E-3,3.6092542E-4,1.1599064E-4,-5.0115585E-3,4.722327E-3,-3.8710237E-4,2.1011531E-3,8.472105E-3,-5.517602E-4,7.944107E-4,4.8559904E-4,3.3923648E-3,-2.5952607E-3,1.0979176E-3,-8.130074E-3,-1.0016611E-3,2.4307668E-3,-5.370498E-4,1.5362176E-3,-1.9278874E-4],"categories":[],"categories_nodes":[],"categories_segments":[],"categories_sizes":[],"default_left":[1,1,1,1,1,1,1,1,1,0,1,0,0,1,1,1,1,1,1,1,1,0,0,1,1,1,0,0,1,1,1,0,0,1,1,1,1,0,0,0,1,0,0,0,0,0,0,0,0,0,0,0,0,0,0,0,0,0,0],"id":38,"left_children":[1,3,5,7,9,11,13,15,17,-1,19,-1,-1,21,23,25,27,29,31,33,35,-1,-1,37,39,41,-1,-1,43,45,47,-1,-1,49,51,53,55,-1,-1,-1,57,-1,-1,-1,-1,-1,-1,-1,-1,-1,-1,-1,-1,-1,-1,-1,-1,-1,-1],"loss_changes":[1.9181929E-5,4.140392E-5,1.4589923E-4,5.1158146E-5,8.960423E-5,1.2917531E-4,1.00415054E-4,5.728498E-5,9.930029E-5,0E0,1.01013095E-4,0E0,0E0,2.240995E-6,9.258711E-5,7.380566E-5,1.8683221E-4,8.333838E-5,3.7841965E-6,2.7048962E-5,8.476325E-5,0E0,0E0,1.7436068E-5,1.7438605E-4,7.220266E-5,0E0,0E0,1.9841544E-5,4.843707E-6,2.0927282E-6,0E0,0E0,1.0291369E-5,1.2892222E-5,1.05458894E-4,1.467793E-5,0E0,0E0,0E0,2.2422546E-5,0E0,0E0,0E0,0E0,0E0,0E0,0E0,0E0,0E0,0E0,0E0,0E0,0E0,0E0,0E0,0E0,0E0,0E0],"parents":[2147483647,0,0,1,1,2,2,3,3,4,4,5,5,6,6,7,7,8,8,10,10,13,13,14,14,15,15,16,16,17,17,18,18,19,19,20,20,23,23,24,24,25,25,28,28,29,29,30,30,33,33,34,34,35,35,36,36,40,40],"right_children":[2,4,6,8,10,12,14,16,18,-1,20,-1,-1,22,24,26,28,30,32,34,36,-1,-1,38,40,42,-1,-1,44,46,48,-1,-1,50,52,54,56,-1,-1,-1,58,-1,-1,-1,-1,-1,-1,-1,-1,-1,-1,-1,-1,-1,-1,-1,-1,-1,-1],"split_conditions":[3.8030243E-1,-3.3790052E-1,5.4295547E-2,-4.4919032E-1,-4.4284242E-1,-1.7621538E-1,1.0937208E-1,-5.0138557E-1,-4.6160236E-1,-2.3120465E-3,-4.1376916E-1,-7.518053E-4,2.4895398E-3,-5.563802E-2,3.841932E-1,-5.800083E-1,-6.7629445E-1,-3.9099568E-1,1.5E0,-9.610657E-3,1.1736769E-1,-1.9193173E-3,-6.617919E-4,1.2406781E0,4.2762923E-1,-6.0916567E-1,1.1364485E-3,-2.5662305E-3,3E0,-6.3867366E-1,3E0,-4.306734E-5,-7.6366664E-4,-1.3264273E-1,1.1764374E0,2.5E0,-8.6403884E-2,1.6098362E-3,1.0017604E-4,-2.7745073E-3,8.328324E-1,3.4797195E-5,-1.5034677E-3,1.4166981E-3,-1.16130715E-4,6.3034595E-4,2.5416315E-3,-1.6552806E-4,2.3832322E-4,1.4567972E-4,1.0177095E-3,-7.785783E-4,3.2937527E-4,-2.439022E-3,-3.0049833E-4,7.2923006E-4,-1.6111493E-4,4.608653E-4,-5.7836623E-5],"split_indices":[4,5,3,5,3,5,1,5,3,0,4,0,0,1,5,5,4,5,0,5,5,0,0,4,5,5,0,0,0,1,0,0,0,1,1,0,3,0,0,0,3,0,0,0,0,0,0,0,0,0,0,0,0,0,0,0,0,0,0],"split_type":[0,0,0,0,0,0,0,0,0,0,0,0,0,0,0,0,0,0,0,0,0,0,0,0,0,0,0,0,0,0,0,0,0,0,0,0,0,0,0,0,0,0,0,0,0,0,0,0,0,0,0,0,0,0,0,0,0,0,0],"sum_hessian":[1.24E2,7.9E1,4.5E1,5.1E1,2.8E1,4E0,4.1E1,4.2E1,9E0,1E0,2.7E1,1E0,3E0,3E0,3.8E1,3.8E1,4E0,6E0,3E0,9E0,1.8E1,1E0,2E0,4E0,3.4E1,3.4E1,4E0,2E0,2E0,3E0,3E0,1E0,2E0,7E0,2E0,8E0,1E1,3E0,1E0,1E0,3.3E1,3.2E1,2E0,1E0,1E0,1E0,2E0,1E0,2E0,2E0,5E0,1E0,1E0,3E0,5E0,1E0,9E0,1E1,2.3E1],"tree_param":{"num_deleted":"0","num_feature":"6","num_nodes":"59","size_leaf_vector":"0"}},{"base_weights":[-2.0041227E-5,-1.4273221E-4,1.1471933E-3,-1.9757515E-4,3.0272603E-3,-1.5950948E-4,1.600484E-3,-3.066104E-5,-1.5998805E-3,9.332299E-4,-8.348326E-4,2.4202703E-3,4.6060086E-4,-1.26445E-4,3.1723578E-3,-2.4576782E-4,-2.246216E-3,8.674264E-4,3.1663578E-3,-5.478859E-4,1.315554E-3,1.6561194E-4,-7.5224135E-4,4.222393E-4,-8.318524E-4,-3.3581972E-3,-2.9468536E-4,2.0602942E-3,-8.696318E-5,-1.3978328E-4,5.16323E-3,5.8075152E-3,-1.1511856E-3,-4.1339993E-3,-1.2749434E-4,-8.639892E-4,7.0661306E-4],"categories":[],"categories_nodes":[],"categories_segments":[],"categories_sizes":[],"default_left":[1,1,1,1,0,1,1,1,1,0,0,1,1,1,0,1,1,0,0,0,1,1,1,0,0,1,1,0,0,0,0,0,0,0,0,0,0],"id":39,"left_children":[1,3,5,7,-1,9,11,13,15,-1,-1,17,19,21,-1,23,25,-1,-1,-1,27,29,31,-1,-1,33,35,-1,-1,-1,-1,-1,-1,-1,-1,-1,-1],"loss_changes":[1.8064886E-5,2.0417208E-5,7.363087E-6,2.6400243E-5,0E0,3.7308994E-6,7.295368E-6,3.1694508E-5,9.950483E-6,0E0,0E0,3.0462033E-6,5.0318185E-6,1.8401395E-5,0E0,2.3087841E-6,1.6370912E-5,7.78781E-7,0E0,4.8218305E-7,3.3127017E-6,1.0603289E-4,9.042879E-5,0E0,0E0,1.2004872E-5,2.8906782E-6,0E0,0E0,0E0,0E0,0E0,0E0,0E0,0E0,0E0,0E0],"parents":[2147483647,0,0,1,1,2,2,3,3,5,5,6,6,7,7,8,8,11,11,12,12,13,13,15,15,16,16,20,20,21,21,22,22,25,25,26,26],"right_children":[2,4,6,8,-1,10,12,14,16,-1,-1,18,20,22,-1,24,26,-1,-1,-1,28,30,32,-1,-1,34,36,-1,-1,-1,-1,-1,-1,-1,-1,-1,-1],"split_conditions":[1.4129518E0,1.8611377E0,-2.696076E-1,1.0169276E0,9.081781E-4,-4.4047177E-1,1.6530468E0,1.0298116E0,1.1539526E0,2.7996898E-4,-2.5044978E-4,1.9838376E-1,8.2347035E-1,2.8843503E-4,9.5170736E-4,2.5E0,1.253442E0,2.6022794E-4,9.4990735E-4,-1.6436577E-4,1.5944629E0,-3.3248488E-2,-1.8764609E-1,1.266718E-4,-2.495557E-4,1.3252804E0,4E0,6.180883E-4,-2.6088954E-5,-4.1934985E-5,1.5489691E-3,1.7422546E-3,-3.453557E-4,-1.2401999E-3,-3.82483E-5,-2.5919676E-4,2.1198393E-4],"split_indices":[1,5,4,1,0,4,5,3,5,0,0,4,4,5,0,0,1,0,0,0,1,5,1,0,0,3,0,0,0,0,0,0,